{"learner":{"attributes":{"scikit_learn":"{\"_estimator_type\": \"regressor\"}"},"feature_names":["REGULAR","RETRO","OTHER","INJURED","DETAIL","POSTAL","TITLE_ENC"],"feature_types":["float","float","float","float","float","float","int"],"gradient_booster":{"model":{"cats":{"enc":[],"feature_segments":[],"sorted_idx":[]},"gbtree_model_param":{"num_parallel_tree":"1","num_trees":"300"},"iteration_indptr":[0,1,2,3,4,5,6,7,8,9,10,11,12,13,14,15,16,17,18,19,20,21,22,23,24,25,26,27,28,29,30,31,32,33,34,35,36,37,38,39,40,41,42,43,44,45,46,47,48,49,50,51,52,53,54,55,56,57,58,59,60,61,62,63,64,65,66,67,68,69,70,71,72,73,74,75,76,77,78,79,80,81,82,83,84,85,86,87,88,89,90,91,92,93,94,95,96,97,98,99,100,101,102,103,104,105,106,107,108,109,110,111,112,113,114,115,116,117,118,119,120,121,122,123,124,125,126,127,128,129,130,131,132,133,134,135,136,137,138,139,140,141,142,143,144,145,146,147,148,149,150,151,152,153,154,155,156,157,158,159,160,161,162,163,164,165,166,167,168,169,170,171,172,173,174,175,176,177,178,179,180,181,182,183,184,185,186,187,188,189,190,191,192,193,194,195,196,197,198,199,200,201,202,203,204,205,206,207,208,209,210,211,212,213,214,215,216,217,218,219,220,221,222,223,224,225,226,227,228,229,230,231,232,233,234,235,236,237,238,239,240,241,242,243,244,245,246,247,248,249,250,251,252,253,254,255,256,257,258,259,260,261,262,263,264,265,266,267,268,269,270,271,272,273,274,275,276,277,278,279,280,281,282,283,284,285,286,287,288,289,290,291,292,293,294,295,296,297,298,299,300],"tree_info":[0,0,0,0,0,0,0,0,0,0,0,0,0,0,0,0,0,0,0,0,0,0,0,0,0,0,0,0,0,0,0,0,0,0,0,0,0,0,0,0,0,0,0,0,0,0,0,0,0,0,0,0,0,0,0,0,0,0,0,0,0,0,0,0,0,0,0,0,0,0,0,0,0,0,0,0,0,0,0,0,0,0,0,0,0,0,0,0,0,0,0,0,0,0,0,0,0,0,0,0,0,0,0,0,0,0,0,0,0,0,0,0,0,0,0,0,0,0,0,0,0,0,0,0,0,0,0,0,0,0,0,0,0,0,0,0,0,0,0,0,0,0,0,0,0,0,0,0,0,0,0,0,0,0,0,0,0,0,0,0,0,0,0,0,0,0,0,0,0,0,0,0,0,0,0,0,0,0,0,0,0,0,0,0,0,0,0,0,0,0,0,0,0,0,0,0,0,0,0,0,0,0,0,0,0,0,0,0,0,0,0,0,0,0,0,0,0,0,0,0,0,0,0,0,0,0,0,0,0,0,0,0,0,0,0,0,0,0,0,0,0,0,0,0,0,0,0,0,0,0,0,0,0,0,0,0,0,0,0,0,0,0,0,0,0,0,0,0,0,0,0,0,0,0,0,0,0,0,0,0,0,0,0,0,0,0,0,0,0,0,0,0,0,0,0,0,0,0,0,0],"trees":[{"base_weights":[-3.1680817E1,-1.0417114E4,1.2486072E4,-1.4968119E4,-2.9093362E3,9.08136E3,3.7402793E4,-1.9059674E4,-9.703781E3,-1.1991366E4,-1.7943607E3,5.5372876E3,1.228091E4,3.3666254E4,8.630638E4,-2.0752205E4,-1.7210688E4,-1.2584457E4,-5.23534E3,-6.033194E3,-1.4710858E4,-3.1203916E3,5.3618545E3,1.5751384E3,6.896463E3,-5.4680625E3,1.2591547E4,2.7297047E4,4.3701004E4,8.824177E4,1.121931E3,-1.9452326E4,-2.2647383E4,-1.5916628E4,-1.8821828E4,-6.6948228E3,-1.3166734E4,-5.0256378E2,-7.3273027E3,-8.85758E3,-1.1598727E3,-1.5349003E3,-2.4223938E3,-6.635977E3,-6.128342E2,1.3941827E4,1.9485083E1,-1.6536787E3,7.360354E3,5.7492812E3,8.632092E3,-8.697152E3,1.0512366E4,1.2045212E4,1.9266148E4,3.181482E4,4.1273867E3,5.870693E4,3.407625E4,5.3185933E3,9.260225E3,-2.057587E3,-1.7251422E3,-2.2811348E3,-9.2809375E2,-1.639183E3,-1.3146826E3,-1.9911194E3,-1.684259E3,-1.4629639E3,6.1388245E1,-1.241708E3,-2.0477949E3,-7.5623376E2,2.2773692E2,-4.1320773E2,-1.7928864E3,5.0067218E2,-9.3293555E2,-5.134971E2,5.3162714E2,-7.9288416E2,2.4672429E2,-7.401481E2,3.6796772E1,-2.2714935E1,-5.822411E2,1.6590104E3,-8.752575E2,2.0471143E2,-8.4841046E2,4.8762476E2,-2.4862247E2,1.4169971E3,5.4181805E2,5.8966113E2,-8.910488E2,2.1989546E3,8.3152606E2,-1.1423354E3,1.0515896E3,1.3527145E2,2.8155312E3,1.0513197E3,1.4353696E3,2.1802112E3,6.931514E2,2.7762588E3,4.702326E3,-5.488715E2,9.267591E2,6.5045034E3,2.423687E3,1.7382441E3,4.0195642E3],"categories":[],"categories_nodes":[],"categories_segments":[],"categories_sizes":[],"default_left":[0,0,0,0,0,0,0,0,0,0,0,0,0,0,0,0,0,0,0,0,0,0,0,0,0,0,0,0,0,0,0,0,0,0,0,0,0,0,0,0,0,0,0,0,0,0,0,0,0,0,0,0,0,0,0,0,0,0,0,0,0,0,0,0,0,0,0,0,0,0,0,0,0,0,0,0,0,0,0,0,0,0,0,0,0,0,0,0,0,0,0,0,0,0,0,0,0,0,0,0,0,0,0,0,0,0,0,0,0,0,0,0,0,0,0],"id":0,"left_children":[1,3,5,7,9,11,13,15,17,19,21,23,25,27,29,31,33,35,37,39,41,43,45,47,49,51,53,55,57,59,-1,61,63,65,67,69,71,73,75,77,79,-1,81,83,85,87,89,91,93,95,97,99,101,103,105,107,109,111,113,-1,-1,-1,-1,-1,-1,-1,-1,-1,-1,-1,-1,-1,-1,-1,-1,-1,-1,-1,-1,-1,-1,-1,-1,-1,-1,-1,-1,-1,-1,-1,-1,-1,-1,-1,-1,-1,-1,-1,-1,-1,-1,-1,-1,-1,-1,-1,-1,-1,-1,-1,-1,-1,-1,-1,-1],"loss_changes":[1.1645604E12,1.6724273E11,3.4425713E11,6.546686E10,1.8701902E10,4.047048E10,8.6266675E10,5.006754E9,1.7118413E10,3.184294E9,1.5655201E10,9.133302E9,1.0423173E10,2.7887698E10,3.9509524E9,1.7520067E9,1.4204764E9,2.6930954E9,5.194235E9,8.8439526E8,1.0449879E9,1.2258337E10,1.1825775E10,8.137712E9,2.4671027E9,1.7943016E9,6.4995E9,2.9282435E10,2.3274455E10,1.1924275E8,0E0,9.679831E8,5.685084E8,3.9521485E8,4.4516966E8,4.3584737E9,3.7851218E9,3.1965847E9,1.225619E10,3.148836E8,6.7088154E8,0E0,2.349586E8,3.1070597E9,1.6322015E9,6.0952084E9,2.776108E9,1.5343334E9,1.9863951E9,1.7026478E9,1.9374121E9,1.5867288E9,9.315333E8,5.89321E9,4.165542E9,1.3177143E10,2.3740175E9,1.3061325E10,1.0436297E10,0E0,0E0,0E0,0E0,0E0,0E0,0E0,0E0,0E0,0E0,0E0,0E0,0E0,0E0,0E0,0E0,0E0,0E0,0E0,0E0,0E0,0E0,0E0,0E0,0E0,0E0,0E0,0E0,0E0,0E0,0E0,0E0,0E0,0E0,0E0,0E0,0E0,0E0,0E0,0E0,0E0,0E0,0E0,0E0,0E0,0E0,0E0,0E0,0E0,0E0,0E0,0E0,0E0,0E0,0E0,0E0],"parents":[2147483647,0,0,1,1,2,2,3,3,4,4,5,5,6,6,7,7,8,8,9,9,10,10,11,11,12,12,13,13,14,14,15,15,16,16,17,17,18,18,19,19,20,20,21,21,22,22,23,23,24,24,25,25,26,26,27,27,28,28,29,29,31,31,32,32,33,33,34,34,35,35,36,36,37,37,38,38,39,39,40,40,42,42,43,43,44,44,45,45,46,46,47,47,48,48,49,49,50,50,51,51,52,52,53,53,54,54,55,55,56,56,57,57,58,58],"right_children":[2,4,6,8,10,12,14,16,18,20,22,24,26,28,30,32,34,36,38,40,42,44,46,48,50,52,54,56,58,60,-1,62,64,66,68,70,72,74,76,78,80,-1,82,84,86,88,90,92,94,96,98,100,102,104,106,108,110,112,114,-1,-1,-1,-1,-1,-1,-1,-1,-1,-1,-1,-1,-1,-1,-1,-1,-1,-1,-1,-1,-1,-1,-1,-1,-1,-1,-1,-1,-1,-1,-1,-1,-1,-1,-1,-1,-1,-1,-1,-1,-1,-1,-1,-1,-1,-1,-1,-1,-1,-1,-1,-1,-1,-1,-1,-1],"split_conditions":[1.8349033E4,2.1612E4,3.8283926E4,4.15833E3,6.0922E2,2.3884734E4,7.10243E4,1.940133E4,9.93273E3,7.369488E4,2.7149066E4,4.69E2,9.000184E4,5.163626E4,2.703E3,5.085767E4,5.551961E4,1.2843769E4,1.5351768E4,5.614897E4,2.4570633E4,1.2730142E4,1.88736E3,2.1965033E4,2.5312797E4,6.6E2,3.394286E4,1.3126308E5,1.3212912E5,2.043E3,1.121931E3,1.15551E3,9.11861E4,2.0383025E4,2.0799965E4,7.999808E4,8.701455E4,7.825988E4,1.026812E5,1.189627E4,2.4993639E4,-1.5349003E3,1.9408E2,2.5135303E4,1.10209E5,3.559425E4,1.198852E5,3.19E2,3.94E2,1.2490646E5,9.994916E4,5.768506E4,2.8343172E4,1.3335798E5,4.039425E4,1.2268204E5,1.3732655E5,6.6E2,5.810982E4,5.3185933E3,9.260225E3,-2.057587E3,-1.7251422E3,-2.2811348E3,-9.2809375E2,-1.639183E3,-1.3146826E3,-1.9911194E3,-1.684259E3,-1.4629639E3,6.1388245E1,-1.241708E3,-2.0477949E3,-7.5623376E2,2.2773692E2,-4.1320773E2,-1.7928864E3,5.0067218E2,-9.3293555E2,-5.134971E2,5.3162714E2,-7.9288416E2,2.4672429E2,-7.401481E2,3.6796772E1,-2.2714935E1,-5.822411E2,1.6590104E3,-8.752575E2,2.0471143E2,-8.4841046E2,4.8762476E2,-2.4862247E2,1.4169971E3,5.4181805E2,5.8966113E2,-8.910488E2,2.1989546E3,8.3152606E2,-1.1423354E3,1.0515896E3,1.3527145E2,2.8155312E3,1.0513197E3,1.4353696E3,2.1802112E3,6.931514E2,2.7762588E3,4.702326E3,-5.488715E2,9.267591E2,6.5045034E3,2.423687E3,1.7382441E3,4.0195642E3],"split_indices":[1,4,1,1,1,1,1,4,1,0,4,6,0,1,5,0,0,4,4,0,4,1,1,1,4,6,1,0,0,5,0,1,0,4,4,0,0,0,0,0,4,0,1,4,0,4,0,6,6,0,0,4,1,0,4,0,0,6,1,0,0,0,0,0,0,0,0,0,0,0,0,0,0,0,0,0,0,0,0,0,0,0,0,0,0,0,0,0,0,0,0,0,0,0,0,0,0,0,0,0,0,0,0,0,0,0,0,0,0,0,0,0,0,0,0],"split_type":[0,0,0,0,0,0,0,0,0,0,0,0,0,0,0,0,0,0,0,0,0,0,0,0,0,0,0,0,0,0,0,0,0,0,0,0,0,0,0,0,0,0,0,0,0,0,0,0,0,0,0,0,0,0,0,0,0,0,0,0,0,0,0,0,0,0,0,0,0,0,0,0,0,0,0,0,0,0,0,0,0,0,0,0,0,0,0,0,0,0,0,0,0,0,0,0,0,0,0,0,0,0,0,0,0,0,0,0,0,0,0,0,0,0,0],"sum_hessian":[8.956E3,4.895E3,4.061E3,3.047E3,1.848E3,3.574E3,4.87E2,1.713E3,1.334E3,2.01E2,1.647E3,1.697E3,1.877E3,4.54E2,3.3E1,8.89E2,8.24E2,8.1E2,5.24E2,6.4E1,1.37E2,1.39E3,2.57E2,4.34E2,1.263E3,3.2E1,1.845E3,2.8E2,1.74E2,3.2E1,1E0,5.34E2,3.55E2,4.63E2,3.61E2,7.4E1,7.36E2,1.61E2,3.63E2,4E1,2.4E1,1.3E2,7E0,5.78E2,8.12E2,9.8E1,1.59E2,2.79E2,1.55E2,7.63E2,5E2,2.7E1,5E0,1.708E3,1.37E2,2.34E2,4.6E1,6.6E1,1.08E2,5E0,2.7E1,3.48E2,1.86E2,3.5E2,5E0,3.91E2,7.2E1,2.27E2,1.34E2,3.5E1,3.9E1,6.7E2,6.6E1,4.5E1,1.16E2,2.8E2,8.3E1,1E0,3.9E1,1.5E1,9E0,3E0,4E0,5.21E2,5.7E1,7.57E2,5.5E1,8.8E1,1E1,1.29E2,3E1,3.1E1,2.48E2,3.3E1,1.22E2,7.56E2,7E0,1E1,4.9E2,2.4E1,3E0,4E0,1E0,1.03E3,6.78E2,1.13E2,2.4E1,1.87E2,4.7E1,1.6E1,3E1,5.5E1,1.1E1,3E1,7.8E1],"tree_param":{"num_deleted":"0","num_feature":"7","num_nodes":"115","size_leaf_vector":"1"}},{"base_weights":[-7.0726845E1,-1.091177E4,9.772717E3,-1.41143545E4,-4.0621438E3,6.992334E3,3.419577E4,-1.7147844E4,-1.0094556E4,-6.0419136E3,3.0323738E3,1.832868E3,9.951099E3,4.2597645E4,1.2604175E4,-1.8659316E4,-1.5482681E4,-1.2056713E4,-7.0960317E3,-1.0461597E4,-3.4308547E3,6.9995435E3,-4.4018887E3,3.679056E2,3.578716E3,1.0694511E4,-2.0958699E3,3.8058305E4,7.862756E4,9.728253E3,3.9287715E3,-2.0452287E4,-1.7694283E4,-1.658086E4,-1.4609221E4,6.6997456E3,-1.2623391E4,-2.9103655E3,-8.69079E3,-1.2590208E4,-6.6195312E3,-5.484205E3,-2.32423E3,2.3358179E3,1.3592045E4,-1.2802031E4,-2.2747727E3,5.4850273E3,-1.0136346E2,4.309156E3,-9.054504E2,8.990515E3,1.4050195E4,-1.1208402E3,-1.0679205E4,4.27894E4,2.8088826E4,8.017651E4,1.0658344E3,1.7745586E4,2.5230164E3,7.642957E2,-2.0572617E3,-7.5656085E2,-1.7806182E3,-1.8995264E3,-1.562206E3,-1.4843683E3,-9.068011E2,-9.349223E2,1.5882477E3,-1.4334161E3,-1.0623135E3,2.5258067E2,-8.540714E2,-1.6688583E3,-5.874186E2,-1.3331266E3,-7.863674E2,-9.259103E2,-3.6162427E2,2.1873188E3,-5.693697E2,-3.0228546E2,-1.443584E2,3.234432E1,5.744653E2,1.8933938E3,8.68847E1,-1.5194948E3,1.1665991E2,5.649015E0,-5.0259155E2,6.527468E2,-9.580693E2,-5.394263E2,6.549143E1,2.802715E2,5.734189E2,-3.6851938E2,8.0506195E2,7.1673157E2,9.998673E2,2.2302322E3,1.2841544E3,-1.8864784E2,1.048827E3,-1.5230339E3,-5.5559444E1,4.746846E3,3.169319E3,2.2068103E3,3.402943E3,4.690204E3,8.510376E3,2.6615588E3,9.4297833E2,-3.4163882E2,1.4827089E3],"categories":[],"categories_nodes":[],"categories_segments":[],"categories_sizes":[],"default_left":[0,0,0,0,0,0,0,0,0,0,0,0,0,0,0,0,0,0,0,0,0,0,0,0,0,0,0,0,0,0,0,0,0,0,0,0,0,0,0,0,0,0,0,0,0,0,0,0,0,0,0,0,0,0,0,0,0,0,0,0,0,0,0,0,0,0,0,0,0,0,0,0,0,0,0,0,0,0,0,0,0,0,0,0,0,0,0,0,0,0,0,0,0,0,0,0,0,0,0,0,0,0,0,0,0,0,0,0,0,0,0,0,0,0,0,0,0,0,0],"id":1,"left_children":[1,3,5,7,9,11,13,15,17,19,21,23,25,27,29,31,33,35,37,39,41,43,45,47,49,51,53,55,57,59,-1,61,63,65,67,69,71,73,75,77,79,81,83,85,87,89,91,93,95,97,99,101,103,105,107,109,111,113,-1,115,117,-1,-1,-1,-1,-1,-1,-1,-1,-1,-1,-1,-1,-1,-1,-1,-1,-1,-1,-1,-1,-1,-1,-1,-1,-1,-1,-1,-1,-1,-1,-1,-1,-1,-1,-1,-1,-1,-1,-1,-1,-1,-1,-1,-1,-1,-1,-1,-1,-1,-1,-1,-1,-1,-1,-1,-1,-1,-1],"loss_changes":[9.646873E11,9.431351E10,3.214969E11,3.5567567E10,1.9288762E10,6.49371E10,8.726544E10,3.9117455E9,7.345406E9,1.2346585E10,8.878705E9,3.9680814E9,2.4238998E10,5.3923676E10,1.0131145E10,1.1434394E9,5.2515635E8,8.183775E9,3.3256223E9,3.1716106E9,1.5233203E9,5.9943926E9,1.8470264E9,2.0296602E9,2.3228948E9,1.4437646E10,1.3103334E9,1.3466894E10,3.1460884E9,7.176074E9,0E0,1.1646894E9,5.1470336E8,5.0652774E8,4.5522944E8,3.5380756E9,2.379989E9,4.306628E9,8.0791306E9,7.8834074E8,1.1080612E9,1.4770908E9,2.6695757E8,7.93885E8,5.4887926E9,7.1966746E8,5.45443E8,1.1776019E9,3.1057815E9,1.2912865E9,2.5192256E9,3.0383636E9,8.25131E9,1.2908241E9,7.287205E8,9.34681E9,2.9330063E9,2.0746568E9,0E0,4.1009336E9,4.946939E9,0E0,0E0,0E0,0E0,0E0,0E0,0E0,0E0,0E0,0E0,0E0,0E0,0E0,0E0,0E0,0E0,0E0,0E0,0E0,0E0,0E0,0E0,0E0,0E0,0E0,0E0,0E0,0E0,0E0,0E0,0E0,0E0,0E0,0E0,0E0,0E0,0E0,0E0,0E0,0E0,0E0,0E0,0E0,0E0,0E0,0E0,0E0,0E0,0E0,0E0,0E0,0E0,0E0,0E0,0E0,0E0,0E0,0E0],"parents":[2147483647,0,0,1,1,2,2,3,3,4,4,5,5,6,6,7,7,8,8,9,9,10,10,11,11,12,12,13,13,14,14,15,15,16,16,17,17,18,18,19,19,20,20,21,21,22,22,23,23,24,24,25,25,26,26,27,27,28,28,29,29,31,31,32,32,33,33,34,34,35,35,36,36,37,37,38,38,39,39,40,40,41,41,42,42,43,43,44,44,45,45,46,46,47,47,48,48,49,49,50,50,51,51,52,52,53,53,54,54,55,55,56,56,57,57,59,59,60,60],"right_children":[2,4,6,8,10,12,14,16,18,20,22,24,26,28,30,32,34,36,38,40,42,44,46,48,50,52,54,56,58,60,-1,62,64,66,68,70,72,74,76,78,80,82,84,86,88,90,92,94,96,98,100,102,104,106,108,110,112,114,-1,116,118,-1,-1,-1,-1,-1,-1,-1,-1,-1,-1,-1,-1,-1,-1,-1,-1,-1,-1,-1,-1,-1,-1,-1,-1,-1,-1,-1,-1,-1,-1,-1,-1,-1,-1,-1,-1,-1,-1,-1,-1,-1,-1,-1,-1,-1,-1,-1,-1,-1,-1,-1,-1,-1,-1,-1,-1,-1,-1],"split_conditions":[1.5460364E4,2.164388E4,3.8283926E4,3.88184E3,2.5190973E4,2.175359E4,1.879529E4,1.940133E4,8.824549E3,7.913065E3,3.559425E4,2.3973986E4,2.0078264E4,7.10243E4,6.601277E4,3.4414E2,3.391063E4,2.1453096E4,1.5351768E4,2.3866219E4,1.1873746E4,2.874649E4,3.5639E2,4.943738E3,2.8066945E4,2.6485271E4,4.871754E4,3.559425E4,2.703E3,1.2843769E4,3.9287715E3,1.3322704E4,1.944E3,2.0222154E4,2.0799965E4,5.601E2,2.0179232E4,2.6710434E4,2.2998164E4,2.4570633E4,2.2998861E4,9.125999E3,1.398184E4,2.726708E4,2.714256E3,1.03935E3,3.3342095E3,6.966E3,5.601E2,1.998819E4,4.039425E4,2.341645E4,1.7808275E4,2.6879572E4,1.2156757E4,1.031433E4,4.681298E4,2.043E3,1.0658344E3,2.6424803E4,2.1210018E4,7.642957E2,-2.0572617E3,-7.5656085E2,-1.7806182E3,-1.8995264E3,-1.562206E3,-1.4843683E3,-9.068011E2,-9.349223E2,1.5882477E3,-1.4334161E3,-1.0623135E3,2.5258067E2,-8.540714E2,-1.6688583E3,-5.874186E2,-1.3331266E3,-7.863674E2,-9.259103E2,-3.6162427E2,2.1873188E3,-5.693697E2,-3.0228546E2,-1.443584E2,3.234432E1,5.744653E2,1.8933938E3,8.68847E1,-1.5194948E3,1.1665991E2,5.649015E0,-5.0259155E2,6.527468E2,-9.580693E2,-5.394263E2,6.549143E1,2.802715E2,5.734189E2,-3.6851938E2,8.0506195E2,7.1673157E2,9.998673E2,2.2302322E3,1.2841544E3,-1.8864784E2,1.048827E3,-1.5230339E3,-5.5559444E1,4.746846E3,3.169319E3,2.2068103E3,3.402943E3,4.690204E3,8.510376E3,2.6615588E3,9.4297833E2,-3.4163882E2,1.4827089E3],"split_indices":[1,4,1,1,4,1,3,4,1,1,4,4,3,1,1,2,3,3,4,3,1,4,2,3,4,1,3,4,5,4,0,4,4,4,4,2,4,3,3,4,4,3,1,4,1,1,3,2,2,1,4,1,4,4,4,3,1,5,0,3,4,0,0,0,0,0,0,0,0,0,0,0,0,0,0,0,0,0,0,0,0,0,0,0,0,0,0,0,0,0,0,0,0,0,0,0,0,0,0,0,0,0,0,0,0,0,0,0,0,0,0,0,0,0,0,0,0,0,0],"split_type":[0,0,0,0,0,0,0,0,0,0,0,0,0,0,0,0,0,0,0,0,0,0,0,0,0,0,0,0,0,0,0,0,0,0,0,0,0,0,0,0,0,0,0,0,0,0,0,0,0,0,0,0,0,0,0,0,0,0,0,0,0,0,0,0,0,0,0,0,0,0,0,0,0,0,0,0,0,0,0,0,0,0,0,0,0,0,0,0,0,0,0,0,0,0,0,0,0,0,0,0,0,0,0,0,0,0,0,0,0,0,0,0,0,0,0,0,0,0,0],"sum_hessian":[9.038E3,4.301E3,4.737E3,2.93E3,1.371E3,4.254E3,4.83E2,1.668E3,1.262E3,1.072E3,2.99E2,1.551E3,2.703E3,3.47E2,1.36E2,8.69E2,7.99E2,7.61E2,5.01E2,3.97E2,6.75E2,1.95E2,1.04E2,8.44E2,7.07E2,2.546E3,1.57E2,3.1E2,3.7E1,1.24E2,1.2E1,2.97E2,5.72E2,3.46E2,4.53E2,2.2E1,7.39E2,1.39E2,3.62E2,2.54E2,1.43E2,2.35E2,4.4E2,1.15E2,8E1,2E1,8.4E1,7E1,7.74E2,6.08E2,9.9E1,1.691E3,8.55E2,1.42E2,1.5E1,2.08E2,1.02E2,3.6E1,1E0,5.8E1,6.6E1,1E0,2.96E2,7E0,5.65E2,9.3E1,2.53E2,4.33E2,2E1,8E0,1.4E1,3.95E2,3.44E2,7.1E1,6.8E1,9.3E1,2.69E2,2.18E2,3.6E1,7.5E1,6.8E1,1E0,2.34E2,2.44E2,1.96E2,7.3E1,4.2E1,5.6E1,2.4E1,1.7E1,3E0,4.6E1,3.8E1,6.6E1,4E0,9.6E1,6.78E2,2.97E2,3.11E2,7.6E1,2.3E1,6.05E2,1.086E3,1.07E2,7.48E2,1.34E2,8E0,1E1,5E0,1.44E2,6.4E1,5.3E1,4.9E1,6E0,3E1,2.7E1,3.1E1,4.5E1,2.1E1],"tree_param":{"num_deleted":"0","num_feature":"7","num_nodes":"119","size_leaf_vector":"1"}},{"base_weights":[5.1250275E1,-8.33564E3,1.0354296E4,-3.0546143E3,-1.2560117E4,7.842775E3,3.3051402E4,-1.03824795E4,-1.9952744E3,-1.4281131E4,-6.779862E3,4.7495366E3,1.0366846E4,4.147707E4,1.3280841E4,-2.0004294E3,-1.2219934E4,-1.0077508E3,-6.9452114E3,-1.5105982E4,-1.2491111E4,-7.0802295E3,-2.0388907E3,1.5197109E3,5.7968765E3,1.1249461E4,-2.054444E3,3.774376E4,6.827655E4,8.483163E3,2.6935934E4,-7.034022E3,9.450181E3,-1.0781431E4,-1.3760287E3,2.5103088E3,-3.304886E3,-2.6314316E3,-1.0570532E4,-1.2544386E4,-1.5765679E4,-1.1475602E4,-1.667674E4,-6.7578413E3,-1.2520915E4,-2.6813123E2,-7.91163E3,-1.2533457E3,5.278866E3,1.8166838E4,5.5772188E3,1.0090268E4,2.1095445E4,-3.536447E3,4.8236714E3,4.33943E4,2.8652182E4,1.3686258E4,7.327937E4,1.6899738E4,-6.8217188E3,2.302068E4,4.7608735E3,-1.2352477E3,-3.0880746E2,2.4068884E2,2.0787854E3,4.1902066E2,-1.1591948E3,1.01977484E3,1.761162E2,-8.5028516E2,-1.7305945E2,-1.7658324E2,-1.1417931E3,-8.2945087E2,-1.58525E3,-5.8686786E2,-1.494524E3,-1.4856239E3,-1.7806454E3,-9.7129297E2,-1.204507E3,-1.6805084E3,-5.684636E2,-6.521605E2,-1.4411807E3,-1.3272563E3,-8.307903E1,1.2427035E3,-2.0721504E2,-1.2235787E2,-9.647705E2,6.328355E1,-3.6450143E2,6.944306E2,-2.4127588E2,3.7729583E3,1.1344452E3,6.3437976E2,3.3908316E2,9.2232294E2,1.2648676E3,7.6365704E2,2.369083E3,2.501855E2,-5.937577E2,2.6841873E3,2.6993204E2,3.296996E3,5.1537495E3,1.2122837E3,3.6482732E3,-4.1207208E2,2.099549E3,7.510794E3,1.01254266E3,1.9353418E3,-4.0923715E2,6.024903E2,-1.2669159E3,2.418913E3,-4.2637735E2],"categories":[],"categories_nodes":[],"categories_segments":[],"categories_sizes":[],"default_left":[0,0,0,0,0,0,0,0,0,0,0,0,0,0,0,0,0,0,0,0,0,0,0,0,0,0,0,0,0,0,0,0,0,0,0,0,0,0,0,0,0,0,0,0,0,0,0,0,0,0,0,0,0,0,0,0,0,0,0,0,0,0,0,0,0,0,0,0,0,0,0,0,0,0,0,0,0,0,0,0,0,0,0,0,0,0,0,0,0,0,0,0,0,0,0,0,0,0,0,0,0,0,0,0,0,0,0,0,0,0,0,0,0,0,0,0,0,0,0,0,0,0,0],"id":2,"left_children":[1,3,5,7,9,11,13,15,17,19,21,23,25,27,29,31,33,35,37,39,41,43,45,47,49,51,53,55,57,59,61,63,65,67,-1,69,71,73,75,77,79,81,83,85,87,89,91,93,95,97,99,101,103,105,107,109,111,113,115,117,119,121,-1,-1,-1,-1,-1,-1,-1,-1,-1,-1,-1,-1,-1,-1,-1,-1,-1,-1,-1,-1,-1,-1,-1,-1,-1,-1,-1,-1,-1,-1,-1,-1,-1,-1,-1,-1,-1,-1,-1,-1,-1,-1,-1,-1,-1,-1,-1,-1,-1,-1,-1,-1,-1,-1,-1,-1,-1,-1,-1,-1,-1],"loss_changes":[7.7371965E11,1.1008164E11,2.2878395E11,1.7018411E10,2.7180368E10,2.8206285E10,6.6081194E10,4.2418053E9,9.373417E9,2.9296558E9,8.841298E8,5.4982656E9,2.186186E10,2.5437176E10,7.6985426E9,3.005996E9,3.5463168E8,1.2946712E10,4.960972E9,2.2373335E9,2.665005E9,9.555128E8,4.034478E8,4.1763566E9,3.238064E9,2.1016068E10,1.3727793E9,1.1497013E10,8.009548E9,1.1837423E10,1.4131323E9,7.1736294E8,1.2276388E9,1.5290153E9,0E0,3.6274998E9,7.9147233E9,1.0978593E9,1.9482972E9,4.720513E9,1.8549965E9,4.290724E8,8.645427E7,9.221919E8,2.701532E8,7.357227E8,9.269389E7,1.0443754E9,2.1944438E9,2.3747348E9,2.00482E9,3.578921E9,6.630613E9,1.6097167E9,1.05013024E9,1.1118838E10,1.2242248E10,6.07138E8,2.7039498E9,3.118167E9,2.5552855E9,9.957929E8,0E0,0E0,0E0,0E0,0E0,0E0,0E0,0E0,0E0,0E0,0E0,0E0,0E0,0E0,0E0,0E0,0E0,0E0,0E0,0E0,0E0,0E0,0E0,0E0,0E0,0E0,0E0,0E0,0E0,0E0,0E0,0E0,0E0,0E0,0E0,0E0,0E0,0E0,0E0,0E0,0E0,0E0,0E0,0E0,0E0,0E0,0E0,0E0,0E0,0E0,0E0,0E0,0E0,0E0,0E0,0E0,0E0,0E0,0E0,0E0,0E0],"parents":[2147483647,0,0,1,1,2,2,3,3,4,4,5,5,6,6,7,7,8,8,9,9,10,10,11,11,12,12,13,13,14,14,15,15,16,16,17,17,18,18,19,19,20,20,21,21,22,22,23,23,24,24,25,25,26,26,27,27,28,28,29,29,30,30,31,31,32,32,33,33,35,35,36,36,37,37,38,38,39,39,40,40,41,41,42,42,43,43,44,44,45,45,46,46,47,47,48,48,49,49,50,50,51,51,52,52,53,53,54,54,55,55,56,56,57,57,58,58,59,59,60,60,61,61],"right_children":[2,4,6,8,10,12,14,16,18,20,22,24,26,28,30,32,34,36,38,40,42,44,46,48,50,52,54,56,58,60,62,64,66,68,-1,70,72,74,76,78,80,82,84,86,88,90,92,94,96,98,100,102,104,106,108,110,112,114,116,118,120,122,-1,-1,-1,-1,-1,-1,-1,-1,-1,-1,-1,-1,-1,-1,-1,-1,-1,-1,-1,-1,-1,-1,-1,-1,-1,-1,-1,-1,-1,-1,-1,-1,-1,-1,-1,-1,-1,-1,-1,-1,-1,-1,-1,-1,-1,-1,-1,-1,-1,-1,-1,-1,-1,-1,-1,-1,-1,-1,-1,-1,-1],"split_conditions":[1.891456E4,2.5832326E4,4.221637E4,7.0266E2,6.860816E3,2.3884734E4,1.8054758E4,7.60908E4,1.10209E5,2.8605073E3,1.5460364E4,4.54E2,2.1658041E4,7.10243E4,5.810982E4,5.7657E2,1.7515584E4,1.8988541E4,1.11154795E4,3.2343666E4,6.507185E4,8.513103E4,3.866418E4,2.1648686E4,2.24128E3,3.394286E4,6.61E2,1.3126308E5,2.76E2,1.2660206E5,7.10243E4,2.125E3,6.982736E4,8.56866E4,-1.3760287E3,8.246113E4,1.0633382E4,1.4432392E5,5.28E2,6.023454E4,5.184478E4,3.339058E4,9.11861E4,4.6350277E4,4.135171E4,6.507185E4,1.189627E4,1.406703E5,4.14E2,2.124E3,1.3563555E4,1.3598283E5,1.1669061E5,2.5016584E4,6.023454E4,4.681298E4,5.810982E4,8.469951E4,2.324E3,4.6350277E4,2.4240035E4,4.6350277E4,4.7608735E3,-1.2352477E3,-3.0880746E2,2.4068884E2,2.0787854E3,4.1902066E2,-1.1591948E3,1.01977484E3,1.761162E2,-8.5028516E2,-1.7305945E2,-1.7658324E2,-1.1417931E3,-8.2945087E2,-1.58525E3,-5.8686786E2,-1.494524E3,-1.4856239E3,-1.7806454E3,-9.7129297E2,-1.204507E3,-1.6805084E3,-5.684636E2,-6.521605E2,-1.4411807E3,-1.3272563E3,-8.307903E1,1.2427035E3,-2.0721504E2,-1.2235787E2,-9.647705E2,6.328355E1,-3.6450143E2,6.944306E2,-2.4127588E2,3.7729583E3,1.1344452E3,6.3437976E2,3.3908316E2,9.2232294E2,1.2648676E3,7.6365704E2,2.369083E3,2.501855E2,-5.937577E2,2.6841873E3,2.6993204E2,3.296996E3,5.1537495E3,1.2122837E3,3.6482732E3,-4.1207208E2,2.099549E3,7.510794E3,1.01254266E3,1.9353418E3,-4.0923715E2,6.024903E2,-1.2669159E3,2.418913E3,-4.2637735E2],"split_indices":[1,3,1,1,1,1,3,0,0,1,1,6,3,1,1,1,3,3,3,3,0,0,3,1,3,1,6,0,6,0,1,5,0,0,0,0,1,0,6,0,0,3,0,3,3,0,0,0,6,5,3,0,0,3,0,1,1,0,5,3,3,3,0,0,0,0,0,0,0,0,0,0,0,0,0,0,0,0,0,0,0,0,0,0,0,0,0,0,0,0,0,0,0,0,0,0,0,0,0,0,0,0,0,0,0,0,0,0,0,0,0,0,0,0,0,0,0,0,0,0,0,0,0],"split_type":[0,0,0,0,0,0,0,0,0,0,0,0,0,0,0,0,0,0,0,0,0,0,0,0,0,0,0,0,0,0,0,0,0,0,0,0,0,0,0,0,0,0,0,0,0,0,0,0,0,0,0,0,0,0,0,0,0,0,0,0,0,0,0,0,0,0,0,0,0,0,0,0,0,0,0,0,0,0,0,0,0,0,0,0,0,0,0,0,0,0,0,0,0,0,0,0,0,0,0,0,0,0,0,0,0,0,0,0,0,0,0,0,0,0,0,0,0,0,0,0,0,0,0],"sum_hessian":[8.952E3,4.935E3,4.017E3,2.194E3,2.741E3,3.618E3,3.99E2,2.76E2,1.918E3,2.111E3,6.3E2,1.627E3,1.991E3,2.79E2,1.2E2,5E1,2.26E2,1.6E3,3.18E2,1.44E3,6.71E2,5.92E2,3.8E1,3.99E2,1.228E3,1.859E3,1.32E2,2.47E2,3.2E1,9E1,3E1,3.5E1,1.5E1,1.21E2,1.05E2,6.32E2,9.68E2,1.46E2,1.72E2,2.99E2,1.141E3,5.43E2,1.28E2,5.61E2,3.1E1,3E1,8E0,2.3E2,1.69E2,2E1,1.208E3,1.665E3,1.94E2,1.09E2,2.3E1,1.5E2,9.7E1,3E0,2.9E1,5.8E1,3.2E1,2.7E1,3E0,1.4E1,2.1E1,1E1,5E0,6E0,1.15E2,5.5E1,5.77E2,2.24E2,7.44E2,1.34E2,1.2E1,1.22E2,5E1,8E1,2.19E2,7.95E2,3.46E2,1.37E2,4.06E2,1.26E2,2E0,5.46E2,1.5E1,2.9E1,2E0,3E0,2.7E1,2E0,6E0,1.29E2,1.01E2,1.39E2,3E1,4E0,1.6E1,8.93E2,3.15E2,1.247E3,4.18E2,3.2E1,1.62E2,3.1E1,7.8E1,1E0,2.2E1,6.8E1,8.2E1,3.2E1,6.5E1,1E0,2E0,2.8E1,1E0,5.2E1,6E0,1E1,2.2E1,2.6E1,1E0],"tree_param":{"num_deleted":"0","num_feature":"7","num_nodes":"123","size_leaf_vector":"1"}},{"base_weights":[-1.4782005E2,7.4150137E3,-8.232074E3,1.7667684E4,6.184093E3,-3.9005007E3,-1.1315997E4,7.082593E3,2.9294799E4,-1.2467738E3,7.687833E3,6.8405107E3,-4.7077456E3,-1.1834327E4,-2.2045442E3,1.7540713E4,5.446115E3,1.4056741E4,3.7265535E4,-4.0756523E3,2.0111288E3,1.7895945E4,6.261615E3,-4.8754536E3,1.5573901E4,-7.0107373E3,-1.6998745E3,-1.292461E4,-8.4143955E3,-4.443532E3,2.689886E4,6.006634E3,2.4083275E4,-9.113795E3,6.1558076E3,1.2864343E3,2.05346E4,4.4003184E4,2.346849E4,1.1426024E4,-4.8436816E3,7.6800024E3,-8.717618E2,1.7110898E4,6.960483E4,7.731264E3,1.2032281E3,-2.646218E3,-8.959993E3,1.9602633E4,1.037616E4,-9.058882E3,-2.72666E3,-2.1686394E3,7.697207E3,-2.490286E3,-1.3235995E4,-9.34564E3,-5.023826E3,-1.8222772E3,-8.978015E3,3.3872543E4,7.970196E3,-7.776793E2,1.4528182E3,1.1401797E3,3.0515422E3,-1.2794277E3,-2.1383606E2,8.347622E2,6.3074642E1,9.1737256E2,-9.126673E2,1.8331434E3,6.9752783E3,2.904863E3,5.1273193E3,3.003945E3,1.2843981E3,2.5694607E3,6.859335E2,3.5294384E1,-5.425767E2,4.3133585E2,1.0968221E3,1.1386623E2,-2.8377075E2,1.9973457E3,9.0137933E2,8.493844E3,2.5958413E3,6.4392206E2,9.6488214E2,-1.8018509E2,2.10932E2,7.3480194E2,-4.080308E2,-6.241211E1,-9.9039716E2,1.571746E2,2.2738328E3,1.2299557E3,-7.1242004E2,-2.9580136E2,-9.749209E2,-2.2565205E2,-1.2505575E3,-2.8724933E2,1.0438817E1,1.0571636E3,-5.3107416E2,1.3512372E3,-5.567104E2,-1.3722095E3,-1.1381223E3,-9.404912E2,8.841263E2,-6.300903E2,-3.0361578E2,-1.058063E3,9.4318115E1,-5.573926E2,-1.2592936E3,4.6850957E3,1.2425996E3,2.2828145E2,9.105052E2],"categories":[],"categories_nodes":[],"categories_segments":[],"categories_sizes":[],"default_left":[0,0,0,0,0,0,0,0,0,0,0,0,0,0,0,0,0,0,0,0,0,0,0,0,0,0,0,0,0,0,0,0,0,0,0,0,0,0,0,0,0,0,0,0,0,0,0,0,0,0,0,0,0,0,0,0,0,0,0,0,0,0,0,0,0,0,0,0,0,0,0,0,0,0,0,0,0,0,0,0,0,0,0,0,0,0,0,0,0,0,0,0,0,0,0,0,0,0,0,0,0,0,0,0,0,0,0,0,0,0,0,0,0,0,0,0,0,0,0,0,0,0,0,0,0,0,0],"id":3,"left_children":[1,3,5,7,9,11,13,15,17,19,21,23,25,27,29,31,33,35,37,39,41,43,45,47,49,51,53,55,57,59,61,63,65,67,69,71,73,75,77,79,81,83,85,87,89,91,93,95,97,99,101,103,105,107,109,111,113,115,117,119,121,123,125,-1,-1,-1,-1,-1,-1,-1,-1,-1,-1,-1,-1,-1,-1,-1,-1,-1,-1,-1,-1,-1,-1,-1,-1,-1,-1,-1,-1,-1,-1,-1,-1,-1,-1,-1,-1,-1,-1,-1,-1,-1,-1,-1,-1,-1,-1,-1,-1,-1,-1,-1,-1,-1,-1,-1,-1,-1,-1,-1,-1,-1,-1,-1,-1],"loss_changes":[5.503811E11,5.858738E10,5.8077544E10,6.108342E10,4.6426784E10,1.573471E10,1.197441E10,4.3884626E9,2.8261827E10,6.459544E9,5.0189255E10,1.3070582E10,1.1660247E10,8.854995E9,9.111907E9,2.4965263E9,2.4120392E9,6.8396954E9,1.3376045E10,4.5199985E9,5.334429E9,1.59802E10,2.2538183E10,4.7708698E8,1.3252424E9,8.3460874E9,3.2411694E9,5.883658E9,1.7970012E9,1.516938E9,1.05005414E9,1.7573686E9,1.4465905E9,2.5504384E8,2.6346952E9,2.4655306E9,4.685302E9,9.708732E9,3.3142764E9,9.966354E8,1.084822E9,1.1704197E9,8.608986E8,9.508553E9,1.8106757E9,5.7601556E9,1.8662487E9,5.602896E8,1.4332762E8,2.225835E9,1.2320689E9,2.6876396E9,1.396992E9,1.1170148E9,1.3648078E9,2.7340372E9,1.4378598E9,5.757829E8,3.057851E8,2.0203109E9,5.081669E8,1.3662249E9,5.032272E6,0E0,0E0,0E0,0E0,0E0,0E0,0E0,0E0,0E0,0E0,0E0,0E0,0E0,0E0,0E0,0E0,0E0,0E0,0E0,0E0,0E0,0E0,0E0,0E0,0E0,0E0,0E0,0E0,0E0,0E0,0E0,0E0,0E0,0E0,0E0,0E0,0E0,0E0,0E0,0E0,0E0,0E0,0E0,0E0,0E0,0E0,0E0,0E0,0E0,0E0,0E0,0E0,0E0,0E0,0E0,0E0,0E0,0E0,0E0,0E0,0E0,0E0,0E0,0E0],"parents":[2147483647,0,0,1,1,2,2,3,3,4,4,5,5,6,6,7,7,8,8,9,9,10,10,11,11,12,12,13,13,14,14,15,15,16,16,17,17,18,18,19,19,20,20,21,21,22,22,23,23,24,24,25,25,26,26,27,27,28,28,29,29,30,30,31,31,32,32,33,33,34,34,35,35,36,36,37,37,38,38,39,39,40,40,41,41,42,42,43,43,44,44,45,45,46,46,47,47,48,48,49,49,50,50,51,51,52,52,53,53,54,54,55,55,56,56,57,57,58,58,59,59,60,60,61,61,62,62],"right_children":[2,4,6,8,10,12,14,16,18,20,22,24,26,28,30,32,34,36,38,40,42,44,46,48,50,52,54,56,58,60,62,64,66,68,70,72,74,76,78,80,82,84,86,88,90,92,94,96,98,100,102,104,106,108,110,112,114,116,118,120,122,124,126,-1,-1,-1,-1,-1,-1,-1,-1,-1,-1,-1,-1,-1,-1,-1,-1,-1,-1,-1,-1,-1,-1,-1,-1,-1,-1,-1,-1,-1,-1,-1,-1,-1,-1,-1,-1,-1,-1,-1,-1,-1,-1,-1,-1,-1,-1,-1,-1,-1,-1,-1,-1,-1,-1,-1,-1,-1,-1,-1,-1,-1,-1,-1,-1],"split_conditions":[1.8988541E4,1.6454473E4,2.8692469E4,5.22E2,4.69E2,1.14625E4,8.444047E4,4.04E2,1.1766187E5,2.4993639E4,3.8421797E3,4.24E2,2.2119412E4,2.0272492E4,2.3557357E4,1.2017E3,1.0440912E5,3.92E3,9.59949E3,6.8459E2,3.81E2,1.6130648E5,1.4044311E4,1.198852E5,5.28E3,9.95E2,2.6030531E4,3.92E3,2.1394324E4,1.073729E5,2.134E3,3.35E2,1.4560598E5,9.673365E4,1.4230481E4,2.13E3,2.186E3,1.2232116E5,1.4230481E4,1.8332158E4,1.9278021E4,2.6728363E4,2.874649E4,4.536707E4,1.5453134E2,1.2797772E5,9.994916E4,2.0517037E4,1.913E3,9.40097E4,1.3809431E5,1.724803E4,1.011E3,9.348064E4,2.4612508E4,3.9321484E4,1.9717002E4,4.135171E4,2.2536043E4,4.14E2,8.56E3,3.884992E4,9.175508E4,-7.776793E2,1.4528182E3,1.1401797E3,3.0515422E3,-1.2794277E3,-2.1383606E2,8.347622E2,6.3074642E1,9.1737256E2,-9.126673E2,1.8331434E3,6.9752783E3,2.904863E3,5.1273193E3,3.003945E3,1.2843981E3,2.5694607E3,6.859335E2,3.5294384E1,-5.425767E2,4.3133585E2,1.0968221E3,1.1386623E2,-2.8377075E2,1.9973457E3,9.0137933E2,8.493844E3,2.5958413E3,6.4392206E2,9.6488214E2,-1.8018509E2,2.10932E2,7.3480194E2,-4.080308E2,-6.241211E1,-9.9039716E2,1.571746E2,2.2738328E3,1.2299557E3,-7.1242004E2,-2.9580136E2,-9.749209E2,-2.2565205E2,-1.2505575E3,-2.8724933E2,1.0438817E1,1.0571636E3,-5.3107416E2,1.3512372E3,-5.567104E2,-1.3722095E3,-1.1381223E3,-9.404912E2,8.841263E2,-6.300903E2,-3.0361578E2,-1.058063E3,9.4318115E1,-5.573926E2,-1.2592936E3,4.6850957E3,1.2425996E3,2.2828145E2,9.105052E2],"split_indices":[3,4,3,6,6,4,0,6,0,4,3,6,4,4,4,3,0,4,4,3,6,0,3,0,4,6,4,4,4,0,5,6,0,0,3,5,5,0,3,4,4,4,4,4,3,0,0,3,5,0,0,4,6,0,3,3,4,3,4,6,4,3,0,0,0,0,0,0,0,0,0,0,0,0,0,0,0,0,0,0,0,0,0,0,0,0,0,0,0,0,0,0,0,0,0,0,0,0,0,0,0,0,0,0,0,0,0,0,0,0,0,0,0,0,0,0,0,0,0,0,0,0,0,0,0,0,0],"split_type":[0,0,0,0,0,0,0,0,0,0,0,0,0,0,0,0,0,0,0,0,0,0,0,0,0,0,0,0,0,0,0,0,0,0,0,0,0,0,0,0,0,0,0,0,0,0,0,0,0,0,0,0,0,0,0,0,0,0,0,0,0,0,0,0,0,0,0,0,0,0,0,0,0,0,0,0,0,0,0,0,0,0,0,0,0,0,0,0,0,0,0,0,0,0,0,0,0,0,0,0,0,0,0,0,0,0,0,0,0,0,0,0,0,0,0,0,0,0,0,0,0,0,0,0,0,0,0],"sum_hessian":[9E3,4.65E3,4.35E3,4.97E2,4.153E3,1.81E3,2.54E3,2.61E2,2.36E2,6.99E2,3.454E3,1.26E2,1.684E3,2.403E3,1.37E2,3.4E1,2.27E2,8.2E1,1.54E2,3.74E2,3.25E2,4.22E2,3.032E3,5.4E1,7.2E1,9.53E2,7.31E2,1.82E3,5.83E2,1.28E2,9E0,1.3E1,2.1E1,1E1,2.17E2,2.8E1,5.4E1,1.02E2,5.2E1,1.7E1,3.57E2,1.09E2,2.16E2,4.17E2,5E0,2.349E3,6.83E2,3.6E1,1.8E1,3.9E1,3.3E1,6.44E2,3.09E2,6.97E2,3.4E1,5.3E1,1.767E3,4.56E2,1.27E2,8.2E1,4.6E1,6E0,3E0,5E0,8E0,8E0,1.3E1,6E0,4E0,1.55E2,6.2E1,1.6E1,1.2E1,5.3E1,1E0,3.5E1,6.7E1,3.1E1,2.1E1,3E0,1.4E1,3.6E1,3.21E2,5.5E1,5.4E1,1.07E2,1.09E2,3.07E2,1.1E2,3E0,2E0,1.406E3,9.43E2,1.58E2,5.25E2,4E0,3.2E1,2E0,1.6E1,6E0,3.3E1,3E1,3E0,6.6E1,5.78E2,2.96E2,1.3E1,5.32E2,1.65E2,2.8E1,6E0,8E0,4.5E1,1.395E3,3.72E2,4.55E2,1E0,7.6E1,5.1E1,1.9E1,6.3E1,2.5E1,2.1E1,3E0,3E0,1E0,2E0],"tree_param":{"num_deleted":"0","num_feature":"7","num_nodes":"127","size_leaf_vector":"1"}},{"base_weights":[-8.396264E1,6.566456E3,-7.647567E3,9.396412E3,3.030581E3,-3.818349E3,-1.0265866E4,3.980497E3,1.1531657E4,1.0906193E4,2.179913E3,6.810399E3,-4.8385503E3,-1.0776449E4,-2.4343638E3,9.112062E3,2.5337476E3,2.2079746E4,7.465133E3,3.237652E3,2.2795064E4,-4.762836E3,3.2847446E3,-5.4486313E3,1.2632772E4,-6.99282E3,-2.0289569E3,-1.1880468E4,-7.890465E3,-4.148255E3,1.3724246E4,-2.7344925E2,1.20192705E4,8.105635E2,6.6627124E3,1.4341712E4,3.5698145E4,7.551043E3,-1.3395226E4,1.7122193E4,2.5282678E3,3.8063562E4,1.4010509E4,-7.807676E3,-7.77192E1,1.3102001E3,5.607848E3,2.3536421E2,-6.0086416E3,1.9127705E4,6.7347803E3,-9.84527E3,-9.205145E2,-2.512846E3,3.0903684E3,-1.4262465E4,-1.0751526E4,-8.909497E3,-5.4260806E3,-1.6625647E3,-8.19717E3,-1.882812E3,3.1829857E4,-1.8137367E2,1.9328008E3,2.1378357E3,9.490999E2,-2.8215775E2,3.459718E2,7.777029E2,-4.7575815E2,1.8692688E3,3.4511234E2,4.702304E3,2.6747092E3,-5.937926E2,7.654593E2,-1.8952789E3,7.196297E2,5.0284708E2,1.8535244E3,4.7497687E2,3.724215E1,-1.2938701E2,3.9515396E3,1.7396586E3,8.8375116E2,-6.312833E2,-1.3589769E3,3.3309323E2,-4.0412994E2,2.6579102E2,-1.0710454E0,5.489721E2,3.3624597E3,-6.9462445E2,-1.3822456E2,5.1278864E2,2.1799473E3,8.377889E2,-8.08025E2,-1.3937872E3,-7.1721204E2,3.418126E1,-3.2701105E2,-3.4543164E2,-7.731933E1,6.2462744E2,-2.1208878E2,-1.5873914E3,-1.2770181E3,-3.1307153E2,-1.1130756E3,-9.479017E2,-6.1754987E2,-3.0186533E2,-6.3636884E2,-9.893007E2,9.03639E1,-5.831376E2,-1.1524506E3,-8.422039E2,2.7904752E2,4.8338843E3,1.5558497E3],"categories":[],"categories_nodes":[],"categories_segments":[],"categories_sizes":[],"default_left":[0,0,0,0,0,0,0,0,0,0,0,0,0,0,0,0,0,0,0,0,0,0,0,0,0,0,0,0,0,0,0,0,0,0,0,0,0,0,0,0,0,0,0,0,0,0,0,0,0,0,0,0,0,0,0,0,0,0,0,0,0,0,0,0,0,0,0,0,0,0,0,0,0,0,0,0,0,0,0,0,0,0,0,0,0,0,0,0,0,0,0,0,0,0,0,0,0,0,0,0,0,0,0,0,0,0,0,0,0,0,0,0,0,0,0,0,0,0,0,0,0,0,0,0,0],"id":4,"left_children":[1,3,5,7,9,11,13,15,17,19,21,23,25,27,29,31,33,35,37,39,41,43,45,47,49,51,53,55,57,59,61,63,65,67,69,71,73,75,77,79,81,83,85,87,89,91,93,-1,95,97,99,101,103,105,107,109,111,113,115,117,119,121,123,-1,-1,-1,-1,-1,-1,-1,-1,-1,-1,-1,-1,-1,-1,-1,-1,-1,-1,-1,-1,-1,-1,-1,-1,-1,-1,-1,-1,-1,-1,-1,-1,-1,-1,-1,-1,-1,-1,-1,-1,-1,-1,-1,-1,-1,-1,-1,-1,-1,-1,-1,-1,-1,-1,-1,-1,-1,-1,-1,-1,-1,-1],"loss_changes":[4.517544E11,4.7791964E10,4.2090234E10,3.0645748E10,1.4219428E10,1.8553584E10,9.950347E9,5.5598264E9,8.1462575E10,1.8798455E10,1.4743135E10,1.0775329E10,9.421849E9,7.368311E9,4.321823E9,4.5054157E9,4.1781996E9,5.5233855E10,2.5653084E9,1.2075942E9,1.0330997E10,3.765466E9,7.593429E9,2.2824026E8,3.7784996E9,1.5268012E10,1.6872973E9,4.396679E9,1.5865037E9,1.3953805E9,4.2985595E9,1.2427311E9,2.7785503E9,4.0125563E9,2.238566E9,1.5998894E10,1.8103894E10,1.9590431E9,8.2302195E8,9.330432E6,5.825151E8,1.7081958E9,7.74614E8,1.2971407E9,1.43206E9,1.5968717E9,2.3339581E9,0E0,1.8993395E8,1.6836198E9,1.4065436E9,6.464119E9,8.404841E8,1.0127849E9,9.835755E8,1.0982523E9,3.294462E9,6.561587E8,4.1643366E8,1.867587E9,3.5000115E8,2.985387E8,1.1282862E9,0E0,0E0,0E0,0E0,0E0,0E0,0E0,0E0,0E0,0E0,0E0,0E0,0E0,0E0,0E0,0E0,0E0,0E0,0E0,0E0,0E0,0E0,0E0,0E0,0E0,0E0,0E0,0E0,0E0,0E0,0E0,0E0,0E0,0E0,0E0,0E0,0E0,0E0,0E0,0E0,0E0,0E0,0E0,0E0,0E0,0E0,0E0,0E0,0E0,0E0,0E0,0E0,0E0,0E0,0E0,0E0,0E0,0E0,0E0,0E0,0E0,0E0],"parents":[2147483647,0,0,1,1,2,2,3,3,4,4,5,5,6,6,7,7,8,8,9,9,10,10,11,11,12,12,13,13,14,14,15,15,16,16,17,17,18,18,19,19,20,20,21,21,22,22,23,23,24,24,25,25,26,26,27,27,28,28,29,29,30,30,31,31,32,32,33,33,34,34,35,35,36,36,37,37,38,38,39,39,40,40,41,41,42,42,43,43,44,44,45,45,46,46,48,48,49,49,50,50,51,51,52,52,53,53,54,54,55,55,56,56,57,57,58,58,59,59,60,60,61,61,62,62],"right_children":[2,4,6,8,10,12,14,16,18,20,22,24,26,28,30,32,34,36,38,40,42,44,46,48,50,52,54,56,58,60,62,64,66,68,70,72,74,76,78,80,82,84,86,88,90,92,94,-1,96,98,100,102,104,106,108,110,112,114,116,118,120,122,124,-1,-1,-1,-1,-1,-1,-1,-1,-1,-1,-1,-1,-1,-1,-1,-1,-1,-1,-1,-1,-1,-1,-1,-1,-1,-1,-1,-1,-1,-1,-1,-1,-1,-1,-1,-1,-1,-1,-1,-1,-1,-1,-1,-1,-1,-1,-1,-1,-1,-1,-1,-1,-1,-1,-1,-1,-1,-1,-1,-1,-1,-1],"split_conditions":[1.9754828E4,1.0044133E4,2.8847783E4,6.27E2,1.7028475E4,1.383272E4,8.081124E4,1.9278021E4,6.82E2,6.33E2,4.24E2,4.24E2,2.1994418E4,2.0091271E4,1.7493232E4,1.3496922E5,4.54E2,1.2174575E5,1.5603148E5,3.35E2,8.56E3,2.3784143E4,1.1494135E5,6.7401E2,5.28E3,4.71876E3,2.481311E4,3.4414E2,2.1109266E4,1.0130362E5,9.175508E4,1.6101173E4,3.94E2,2.5361207E4,3.559425E4,4.536707E4,2.6000098E4,5.804128E4,3.46076E3,1.3989723E5,1.5319992E4,6.7401E2,1.769336E4,1.3126308E5,3.59E2,1.613855E4,4.536707E4,2.3536421E2,2.0628E3,9.40097E4,1.3809431E5,2.0799965E4,2.5625203E4,9.000184E4,6.37E2,1.9186105E4,3.92E3,1.62978E3,5.034442E4,4.14E2,8.56E3,8.246113E4,9.852156E4,-1.8137367E2,1.9328008E3,2.1378357E3,9.490999E2,-2.8215775E2,3.459718E2,7.777029E2,-4.7575815E2,1.8692688E3,3.4511234E2,4.702304E3,2.6747092E3,-5.937926E2,7.654593E2,-1.8952789E3,7.196297E2,5.0284708E2,1.8535244E3,4.7497687E2,3.724215E1,-1.2938701E2,3.9515396E3,1.7396586E3,8.8375116E2,-6.312833E2,-1.3589769E3,3.3309323E2,-4.0412994E2,2.6579102E2,-1.0710454E0,5.489721E2,3.3624597E3,-6.9462445E2,-1.3822456E2,5.1278864E2,2.1799473E3,8.377889E2,-8.08025E2,-1.3937872E3,-7.1721204E2,3.418126E1,-3.2701105E2,-3.4543164E2,-7.731933E1,6.2462744E2,-2.1208878E2,-1.5873914E3,-1.2770181E3,-3.1307153E2,-1.1130756E3,-9.479017E2,-6.1754987E2,-3.0186533E2,-6.3636884E2,-9.893007E2,9.03639E1,-5.831376E2,-1.1524506E3,-8.422039E2,2.7904752E2,4.8338843E3,1.5558497E3],"split_indices":[3,3,3,6,4,4,0,4,6,6,6,6,4,4,4,0,6,0,0,6,4,4,0,4,4,2,4,2,4,0,0,4,6,4,4,4,4,0,2,0,3,4,3,0,6,3,4,0,2,0,0,4,3,0,6,4,4,2,0,6,4,0,0,0,0,0,0,0,0,0,0,0,0,0,0,0,0,0,0,0,0,0,0,0,0,0,0,0,0,0,0,0,0,0,0,0,0,0,0,0,0,0,0,0,0,0,0,0,0,0,0,0,0,0,0,0,0,0,0,0,0,0,0,0,0],"split_type":[0,0,0,0,0,0,0,0,0,0,0,0,0,0,0,0,0,0,0,0,0,0,0,0,0,0,0,0,0,0,0,0,0,0,0,0,0,0,0,0,0,0,0,0,0,0,0,0,0,0,0,0,0,0,0,0,0,0,0,0,0,0,0,0,0,0,0,0,0,0,0,0,0,0,0,0,0,0,0,0,0,0,0,0,0,0,0,0,0,0,0,0,0,0,0,0,0,0,0,0,0,0,0,0,0,0,0,0,0,0,0,0,0,0,0,0,0,0,0,0,0,0,0,0,0],"sum_hessian":[8.979E3,4.778E3,4.201E3,2.653E3,2.125E3,1.707E3,2.494E3,7.51E2,1.902E3,2.06E2,1.919E3,1.49E2,1.558E3,2.341E3,1.53E2,1.64E2,5.87E2,5.28E2,1.374E3,1.26E2,8E1,2.63E2,1.656E3,4.8E1,1.01E2,8.81E2,6.77E2,1.691E3,6.5E2,1.39E2,1.4E1,3.9E1,1.25E2,4.15E2,1.72E2,3.38E2,1.9E2,1.369E3,5E0,5E0,1.21E2,2.8E1,5.2E1,1.59E2,1.04E2,8.96E2,7.6E2,3E0,4.5E1,4.7E1,5.4E1,5.99E2,2.82E2,6.19E2,5.8E1,5.4E2,1.151E3,4.58E2,1.92E2,8.7E1,5.2E1,8E0,6E0,3.7E1,2E0,2.5E1,1E2,1.75E2,2.4E2,1.57E2,1.5E1,2.41E2,9.7E1,8.2E1,1.08E2,1E1,1.359E3,4E0,1E0,1E0,4E0,5.9E1,6.2E1,1E0,2.7E1,3E1,2.2E1,1.28E2,3.1E1,5.6E1,4.8E1,4.43E2,4.53E2,7.58E2,2E0,3.7E1,8E0,8E0,3.9E1,4.9E1,5E0,2.35E2,3.64E2,1.84E2,9.8E1,4.01E2,2.18E2,3.6E1,2.2E1,2.55E2,2.85E2,5.5E1,1.096E3,3.77E2,8.1E1,5.5E1,1.37E2,2E1,6.7E1,3.2E1,2E1,3E0,5E0,2E0,4E0],"tree_param":{"num_deleted":"0","num_feature":"7","num_nodes":"125","size_leaf_vector":"1"}},{"base_weights":[1.2796916E2,6.366933E3,-6.6276997E3,1.2209977E4,4.884975E3,-2.2122473E3,-8.651942E3,3.7054636E3,1.8319734E4,1.4506155E4,4.1809985E3,8.248064E3,-3.163697E3,-9.361508E3,-4.0527595E3,5.5697046E3,-8.745851E2,1.5538137E4,3.3850234E4,4.671446E3,2.8286346E4,-2.2671555E3,5.1698394E3,-3.1873745E3,1.4236991E4,-5.74444E3,-1.516657E3,-3.3983813E3,-9.956368E3,-4.8931865E3,2.667338E3,-5.62513E2,6.5521597E3,9.486334E3,-2.3896753E3,2.6628182E4,1.2949463E4,6.905548E4,3.0708162E4,1.4954004E4,3.5865754E3,4.5937246E4,2.256002E4,-4.9875103E3,1.6614553E3,6.861537E3,2.469994E3,-2.495738E3,-1.0885643E3,1.9453984E4,9.674736E3,-9.754123E3,5.8226475E1,-1.7174043E3,2.0466762E4,-9.508295E2,-1.0851241E4,-1.1098153E4,-7.6761196E3,-5.0087183E3,1.0332104E4,-4.590935E3,6.0933623E3,-7.11578E2,9.7121234E2,1.2249894E3,5.374909E2,1.5562527E3,-5.778554E2,-3.1061414E2,6.417069E2,2.4500583E3,6.518263E3,1.790252E3,9.5404095E2,4.8114258E1,8.267412E3,3.2843547E3,4.357329E2,1.8072264E3,5.726684E2,1.0832576E2,6.877687E2,5.264444E3,2.1169543E3,3.0843967E3,1.352378E3,7.093156E2,-5.517739E2,4.7504257E2,-1.9320891E2,9.9406464E2,6.2035614E2,1.16085594E2,5.8049664E2,-1.4222691E2,-7.9838617E2,1.581359E3,2.780912E3,4.623841E2,1.4056285E3,-1.058203E3,-6.0544086E2,-4.076058E2,6.994187E1,-3.1755515E2,-9.557332E1,5.486094E2,3.033074E3,-4.696655E2,4.2560596E2,-1.1148889E3,3.0573233E2,-1.2621013E3,-9.176341E2,-5.4911993E2,-1.01185345E3,-5.365119E2,-1.8198611E2,1.6381338E3,-8.831826E1,3.9520065E1,-1.4642247E3,1.0916472E3,2.209474E1],"categories":[],"categories_nodes":[],"categories_segments":[],"categories_sizes":[],"default_left":[0,0,0,0,0,0,0,0,0,0,0,0,0,0,0,0,0,0,0,0,0,0,0,0,0,0,0,0,0,0,0,0,0,0,0,0,0,0,0,0,0,0,0,0,0,0,0,0,0,0,0,0,0,0,0,0,0,0,0,0,0,0,0,0,0,0,0,0,0,0,0,0,0,0,0,0,0,0,0,0,0,0,0,0,0,0,0,0,0,0,0,0,0,0,0,0,0,0,0,0,0,0,0,0,0,0,0,0,0,0,0,0,0,0,0,0,0,0,0,0,0,0,0,0,0],"id":5,"left_children":[1,3,5,7,9,11,13,15,17,19,21,23,25,27,29,31,33,35,37,39,41,43,45,47,49,51,53,55,57,59,61,63,65,67,69,71,73,75,77,79,81,83,85,87,89,91,93,95,-1,97,99,101,103,105,107,109,111,113,115,117,119,121,123,-1,-1,-1,-1,-1,-1,-1,-1,-1,-1,-1,-1,-1,-1,-1,-1,-1,-1,-1,-1,-1,-1,-1,-1,-1,-1,-1,-1,-1,-1,-1,-1,-1,-1,-1,-1,-1,-1,-1,-1,-1,-1,-1,-1,-1,-1,-1,-1,-1,-1,-1,-1,-1,-1,-1,-1,-1,-1,-1,-1,-1,-1],"loss_changes":[3.8055772E11,4.0586396E10,3.8726877E10,4.9242636E10,2.5311322E10,1.3601247E10,9.66094E9,3.4031206E9,2.3320216E10,3.4426524E10,2.2277407E10,7.8527836E9,5.3087713E9,9.096724E9,2.2665042E9,1.7086556E9,1.8436056E9,1.3148176E10,7.0606766E9,1.6196529E9,9.677586E9,4.9778417E9,1.3812908E10,1.8580842E8,1.5968819E9,1.1331528E10,3.4111826E9,4.2763786E9,6.007128E9,6.761974E8,1.1469902E9,2.7624067E9,1.5708273E9,1.4812147E9,6.635251E8,5.6214897E9,6.296244E9,5.563556E9,4.2458808E9,2.993303E8,1.1212511E9,3.038589E9,5.721043E9,1.8006564E9,2.1293458E9,3.7086822E9,5.0926776E9,2.1251533E8,0E0,5.943818E8,8.644974E8,8.180818E8,5.3302506E8,8.3993216E8,8.6798566E8,3.4917184E9,2.74197E8,4.4409815E9,4.1282355E9,3.91424E8,2.1799936E8,7.575447E8,8.756104E8,0E0,0E0,0E0,0E0,0E0,0E0,0E0,0E0,0E0,0E0,0E0,0E0,0E0,0E0,0E0,0E0,0E0,0E0,0E0,0E0,0E0,0E0,0E0,0E0,0E0,0E0,0E0,0E0,0E0,0E0,0E0,0E0,0E0,0E0,0E0,0E0,0E0,0E0,0E0,0E0,0E0,0E0,0E0,0E0,0E0,0E0,0E0,0E0,0E0,0E0,0E0,0E0,0E0,0E0,0E0,0E0,0E0,0E0,0E0,0E0,0E0,0E0],"parents":[2147483647,0,0,1,1,2,2,3,3,4,4,5,5,6,6,7,7,8,8,9,9,10,10,11,11,12,12,13,13,14,14,15,15,16,16,17,17,18,18,19,19,20,20,21,21,22,22,23,23,24,24,25,25,26,26,27,27,28,28,29,29,30,30,31,31,32,32,33,33,34,34,35,35,36,36,37,37,38,38,39,39,40,40,41,41,42,42,43,43,44,44,45,45,46,46,47,47,49,49,50,50,51,51,52,52,53,53,54,54,55,55,56,56,57,57,58,58,59,59,60,60,61,61,62,62],"right_children":[2,4,6,8,10,12,14,16,18,20,22,24,26,28,30,32,34,36,38,40,42,44,46,48,50,52,54,56,58,60,62,64,66,68,70,72,74,76,78,80,82,84,86,88,90,92,94,96,-1,98,100,102,104,106,108,110,112,114,116,118,120,122,124,-1,-1,-1,-1,-1,-1,-1,-1,-1,-1,-1,-1,-1,-1,-1,-1,-1,-1,-1,-1,-1,-1,-1,-1,-1,-1,-1,-1,-1,-1,-1,-1,-1,-1,-1,-1,-1,-1,-1,-1,-1,-1,-1,-1,-1,-1,-1,-1,-1,-1,-1,-1,-1,-1,-1,-1,-1,-1,-1,-1,-1,-1],"split_conditions":[1.8988541E4,4.0553289E3,2.6020625E4,6.27E2,1.5351768E4,1.3322704E4,2.1155809E4,2.874649E4,7.7009E3,5.95E2,4.69E2,4.24E2,2.18532E4,1.14625E4,2.3784143E4,3.06E2,3.59E2,6.56E2,2.34E3,3.94E2,6.43E2,2.42752E4,1.1618087E4,2.341E3,5.28E3,4.5E3,6.966E3,4.6350277E4,1.78135E3,4.3006938E4,4.2E2,2.5754412E4,4E2,2.139E3,3.1779E3,6.58465E3,9.3025E2,6.37E2,2.849484E4,1.071001E4,5.601E2,1.4044311E4,7.55708E3,1.7028475E4,4.1E2,6.92E2,6.09028E3,9.59949E3,-1.0885643E3,6.6E2,2.132E3,2.1612E4,5.48767E3,2.2536043E4,2.5232404E4,6.6E2,2.482E3,1.9717002E4,3.5405465E4,2.2823975E4,3.357E3,2.5361207E4,3.639848E4,-7.11578E2,9.7121234E2,1.2249894E3,5.374909E2,1.5562527E3,-5.778554E2,-3.1061414E2,6.417069E2,2.4500583E3,6.518263E3,1.790252E3,9.5404095E2,4.8114258E1,8.267412E3,3.2843547E3,4.357329E2,1.8072264E3,5.726684E2,1.0832576E2,6.877687E2,5.264444E3,2.1169543E3,3.0843967E3,1.352378E3,7.093156E2,-5.517739E2,4.7504257E2,-1.9320891E2,9.9406464E2,6.2035614E2,1.16085594E2,5.8049664E2,-1.4222691E2,-7.9838617E2,1.581359E3,2.780912E3,4.623841E2,1.4056285E3,-1.058203E3,-6.0544086E2,-4.076058E2,6.994187E1,-3.1755515E2,-9.557332E1,5.486094E2,3.033074E3,-4.696655E2,4.2560596E2,-1.1148889E3,3.0573233E2,-1.2621013E3,-9.176341E2,-5.4911993E2,-1.01185345E3,-5.365119E2,-1.8198611E2,1.6381338E3,-8.831826E1,3.9520065E1,-1.4642247E3,1.0916472E3,2.209474E1],"split_indices":[3,3,3,6,4,4,4,4,2,6,6,6,4,4,4,6,6,6,4,6,6,4,3,5,4,2,2,3,2,3,2,4,6,5,3,2,3,6,2,4,2,3,4,4,6,6,2,4,0,6,5,4,2,4,4,6,5,4,3,4,2,4,3,0,0,0,0,0,0,0,0,0,0,0,0,0,0,0,0,0,0,0,0,0,0,0,0,0,0,0,0,0,0,0,0,0,0,0,0,0,0,0,0,0,0,0,0,0,0,0,0,0,0,0,0,0,0,0,0,0,0,0,0,0,0],"split_type":[0,0,0,0,0,0,0,0,0,0,0,0,0,0,0,0,0,0,0,0,0,0,0,0,0,0,0,0,0,0,0,0,0,0,0,0,0,0,0,0,0,0,0,0,0,0,0,0,0,0,0,0,0,0,0,0,0,0,0,0,0,0,0,0,0,0,0,0,0,0,0,0,0,0,0,0,0,0,0,0,0,0,0,0,0,0,0,0,0,0,0,0,0,0,0,0,0,0,0,0,0,0,0,0,0,0,0,0,0,0,0,0,0,0,0,0,0,0,0,0,0,0,0,0,0],"sum_hessian":[9.027E3,4.693E3,4.334E3,9.48E2,3.745E3,1.363E3,2.971E3,3.97E2,5.51E2,2.54E2,3.491E3,1.13E2,1.25E3,2.573E3,3.98E2,2.82E2,1.15E2,4.69E2,8.2E1,1.49E2,1.05E2,4.64E2,3.027E3,3.9E1,7.4E1,4.86E2,7.64E2,2.34E2,2.339E3,3.54E2,4.4E1,3.9E1,2.43E2,1.4E1,1.01E2,8.7E1,3.82E2,5E0,7.7E1,1.3E1,1.36E2,2.4E1,8.1E1,2.74E2,1.9E2,1.86E3,1.167E3,3.7E1,2E0,3.3E1,4.1E1,2.87E2,1.99E2,7.58E2,6E0,1.77E2,5.7E1,1.556E3,7.83E2,3.52E2,2E0,1.4E1,3E1,2.4E1,1.5E1,4E1,2.03E2,1E1,4E0,9.4E1,7E0,8.4E1,3E0,1.54E2,2.28E2,1E0,4E0,7.1E1,6E0,9E0,4E0,7.8E1,5.8E1,1.8E1,6E0,4.1E1,4E1,1.1E1,2.63E2,1.02E2,8.8E1,3.25E2,1.535E3,8.39E2,3.28E2,3.2E1,5E0,2.5E1,8E0,2E1,2.1E1,2.33E2,5.4E1,2.6E1,1.73E2,2.59E2,4.99E2,3E0,3E0,1.03E2,7.4E1,5.6E1,1E0,8.65E2,6.91E2,4.15E2,3.68E2,3.16E2,3.6E1,1E0,1E0,1E1,4E0,1.6E1,1.4E1],"tree_param":{"num_deleted":"0","num_feature":"7","num_nodes":"125","size_leaf_vector":"1"}},{"base_weights":[3.400374E1,-5.38618E3,7.8288193E3,-8.228128E3,-1.2244706E3,5.3877847E3,2.4591596E4,-9.043342E3,2.9349639E3,-2.918694E3,2.975258E2,5.8154014E3,-9.8981116E2,3.0161523E4,1.0914167E4,-1.0023347E4,-6.7030254E3,6.251468E3,-7.581221E3,-4.5939165E3,-1.8968024E3,-2.2559014E3,1.3618793E3,4.0911274E3,7.721173E3,-2.5602112E3,3.1782068E3,2.7440703E4,5.4811703E4,7.964649E3,2.4469623E4,-1.1791178E4,-8.910573E3,6.219141E3,-7.0616885E3,2.7279062E3,1.2004297E4,1.5349379E3,-8.372879E3,-8.581791E3,-3.008096E3,-1.7558104E3,-6.624315E3,8.641718E2,-3.4102898E3,1.2751295E4,1.216354E3,2.9277603E3,5.106469E3,1.4490551E4,6.9407686E3,-3.9972979E3,5.852072E3,2.460019E3,1.929241E3,3.2074459E4,1.6394951E4,7.711035E3,5.769471E4,6.6579326E3,3.0375885E4,1.1900601E4,2.8945066E4,-1.2869832E3,-1.1173147E3,-9.4249835E2,-6.0556683E2,-3.1775314E2,1.4414597E3,-8.0208344E2,-5.699423E2,3.9806057E1,4.9183633E2,1.5452289E3,1.9683012E2,-8.856152E1,3.443845E2,-5.1957684E2,-1.1087991E3,9.485062E1,-1.4120348E3,-2.6613895E2,-9.844186E2,1.329077E2,-2.0125102E2,9.505407E1,-1.2779254E3,-6.5426704E1,3.973473E2,-8.66269E2,-2.771145E2,2.0651231E2,1.370919E3,8.0509644E2,9.830865E1,1.3360406E3,2.795671E2,-1.2556222E3,5.1632684E2,1.6241952E3,4.3420407E2,7.477893E2,-7.301379E1,-4.9159772E2,6.1374976E2,3.286882E2,2.1002646E3,3.0711432E2,8.389413E1,3.527977E3,2.3984524E3,7.918929E2,2.0433668E3,-3.0793692E2,1.4645922E3,6.4320913E3,3.5086804E3,1.2154498E3,2.1335123E2,4.29595E3,3.4724344E2,9.689652E1,2.2589995E3,2.9831794E3,7.378717E2],"categories":[],"categories_nodes":[],"categories_segments":[],"categories_sizes":[],"default_left":[0,0,0,0,0,0,0,0,0,0,0,0,0,0,0,0,0,0,0,0,0,0,0,0,0,0,0,0,0,0,0,0,0,0,0,0,0,0,0,0,0,0,0,0,0,0,0,0,0,0,0,0,0,0,0,0,0,0,0,0,0,0,0,0,0,0,0,0,0,0,0,0,0,0,0,0,0,0,0,0,0,0,0,0,0,0,0,0,0,0,0,0,0,0,0,0,0,0,0,0,0,0,0,0,0,0,0,0,0,0,0,0,0,0,0,0,0,0,0,0,0,0,0,0,0],"id":6,"left_children":[1,3,5,7,9,11,13,15,17,19,21,23,25,27,29,31,33,35,37,39,41,43,45,47,49,51,53,55,57,59,61,63,65,67,69,71,73,75,77,79,81,83,85,87,89,91,93,95,97,99,101,103,105,-1,107,109,111,113,115,117,119,121,123,-1,-1,-1,-1,-1,-1,-1,-1,-1,-1,-1,-1,-1,-1,-1,-1,-1,-1,-1,-1,-1,-1,-1,-1,-1,-1,-1,-1,-1,-1,-1,-1,-1,-1,-1,-1,-1,-1,-1,-1,-1,-1,-1,-1,-1,-1,-1,-1,-1,-1,-1,-1,-1,-1,-1,-1,-1,-1,-1,-1,-1,-1],"loss_changes":[3.7948342E11,6.2651286E10,1.5061136E11,2.8674327E10,5.547441E9,8.779055E9,3.5324133E10,6.6619965E9,7.5459415E9,1.7339965E9,3.085E9,9.875915E9,1.3368643E9,2.0762722E10,5.28265E9,3.9591608E9,4.0714772E9,3.2916076E9,3.8812954E8,2.4089457E9,4.1095603E8,1.2059404E9,1.312106E9,1.857278E9,7.459193E9,1.8125911E9,1.4508384E9,1.4880309E10,3.9004488E9,3.1362642E9,1.00558234E9,3.8617907E8,1.8109809E9,1.8940431E9,1.05967616E9,5.2369517E8,2.1150351E9,2.6152976E7,3.5644723E8,5.766858E9,6.3032346E8,4.912708E8,8.513571E8,4.3223654E8,7.9511296E8,7.405107E7,1.2547653E9,9.837778E8,9.12554E8,2.5422725E9,5.299958E9,1.2126209E9,7.85977E8,0E0,6.4654336E7,4.625236E9,2.9533204E9,2.6959088E8,2.2373253E9,2.6847642E9,1.8820818E9,9.129316E8,1.0497946E8,0E0,0E0,0E0,0E0,0E0,0E0,0E0,0E0,0E0,0E0,0E0,0E0,0E0,0E0,0E0,0E0,0E0,0E0,0E0,0E0,0E0,0E0,0E0,0E0,0E0,0E0,0E0,0E0,0E0,0E0,0E0,0E0,0E0,0E0,0E0,0E0,0E0,0E0,0E0,0E0,0E0,0E0,0E0,0E0,0E0,0E0,0E0,0E0,0E0,0E0,0E0,0E0,0E0,0E0,0E0,0E0,0E0,0E0,0E0,0E0,0E0,0E0],"parents":[2147483647,0,0,1,1,2,2,3,3,4,4,5,5,6,6,7,7,8,8,9,9,10,10,11,11,12,12,13,13,14,14,15,15,16,16,17,17,18,18,19,19,20,20,21,21,22,22,23,23,24,24,25,25,26,26,27,27,28,28,29,29,30,30,31,31,32,32,33,33,34,34,35,35,36,36,37,37,38,38,39,39,40,40,41,41,42,42,43,43,44,44,45,45,46,46,47,47,48,48,49,49,50,50,51,51,52,52,54,54,55,55,56,56,57,57,58,58,59,59,60,60,61,61,62,62],"right_children":[2,4,6,8,10,12,14,16,18,20,22,24,26,28,30,32,34,36,38,40,42,44,46,48,50,52,54,56,58,60,62,64,66,68,70,72,74,76,78,80,82,84,86,88,90,92,94,96,98,100,102,104,106,-1,108,110,112,114,116,118,120,122,124,-1,-1,-1,-1,-1,-1,-1,-1,-1,-1,-1,-1,-1,-1,-1,-1,-1,-1,-1,-1,-1,-1,-1,-1,-1,-1,-1,-1,-1,-1,-1,-1,-1,-1,-1,-1,-1,-1,-1,-1,-1,-1,-1,-1,-1,-1,-1,-1,-1,-1,-1,-1,-1,-1,-1,-1,-1,-1,-1,-1,-1,-1],"split_conditions":[2.0247172E4,9.290691E3,3.949166E4,2.527469E4,1.4953787E4,1.9567637E4,1.8054758E4,3.88184E3,4.326971E4,2.1525729E4,5.5E2,2.4830463E4,7.81E2,7.10243E4,6.073477E4,1.9234096E4,1.7323334E4,2.9439924E4,2.113E3,2.129057E4,4.8542496E4,4.1E2,2.34E3,2.2504713E4,1.7808275E4,3.594366E4,7.89E2,3.769439E4,2.76E2,2.7636674E4,6.43E2,3.7249832E4,2.3039754E4,4.14E2,2.0465738E4,2.7149066E4,1.88736E3,8.6956E2,3.8421797E3,1.7944482E4,4.4754137E4,1.1618087E4,1.2730142E4,2.3476498E4,2.11E3,2.599E1,6.369821E3,1.0281E2,2.599E1,6.6E2,3.559425E4,2.6879572E4,2.189E3,2.460019E3,2.7438672E4,6.6E2,6.37E2,5.015E1,8.709537E3,1.2156757E4,3.5405465E4,2.134E3,2.368E3,-1.2869832E3,-1.1173147E3,-9.4249835E2,-6.0556683E2,-3.1775314E2,1.4414597E3,-8.0208344E2,-5.699423E2,3.9806057E1,4.9183633E2,1.5452289E3,1.9683012E2,-8.856152E1,3.443845E2,-5.1957684E2,-1.1087991E3,9.485062E1,-1.4120348E3,-2.6613895E2,-9.844186E2,1.329077E2,-2.0125102E2,9.505407E1,-1.2779254E3,-6.5426704E1,3.973473E2,-8.66269E2,-2.771145E2,2.0651231E2,1.370919E3,8.0509644E2,9.830865E1,1.3360406E3,2.795671E2,-1.2556222E3,5.1632684E2,1.6241952E3,4.3420407E2,7.477893E2,-7.301379E1,-4.9159772E2,6.1374976E2,3.286882E2,2.1002646E3,3.0711432E2,8.389413E1,3.527977E3,2.3984524E3,7.918929E2,2.0433668E3,-3.0793692E2,1.4645922E3,6.4320913E3,3.5086804E3,1.2154498E3,2.1335123E2,4.29595E3,3.4724344E2,9.689652E1,2.2589995E3,2.9831794E3,7.378717E2],"split_indices":[1,1,1,4,1,3,3,1,4,4,6,1,6,1,1,4,3,4,5,3,4,6,4,1,4,1,6,4,6,4,6,3,4,6,4,4,1,1,3,4,3,3,1,4,5,3,3,3,3,6,4,4,5,0,3,6,6,3,3,4,3,5,5,0,0,0,0,0,0,0,0,0,0,0,0,0,0,0,0,0,0,0,0,0,0,0,0,0,0,0,0,0,0,0,0,0,0,0,0,0,0,0,0,0,0,0,0,0,0,0,0,0,0,0,0,0,0,0,0,0,0,0,0,0,0],"split_type":[0,0,0,0,0,0,0,0,0,0,0,0,0,0,0,0,0,0,0,0,0,0,0,0,0,0,0,0,0,0,0,0,0,0,0,0,0,0,0,0,0,0,0,0,0,0,0,0,0,0,0,0,0,0,0,0,0,0,0,0,0,0,0,0,0,0,0,0,0,0,0,0,0,0,0,0,0,0,0,0,0,0,0,0,0,0,0,0,0,0,0,0,0,0,0,0,0,0,0,0,0,0,0,0,0,0,0,0,0,0,0,0,0,0,0,0,0,0,0,0,0,0,0,0,0],"sum_hessian":[8.98E3,5.297E3,3.683E3,3.147E3,2.15E3,3.216E3,4.67E2,2.933E3,2.14E2,1.017E3,1.133E3,3.014E3,2.02E2,3.31E2,1.36E2,2.065E3,8.68E2,1.63E2,5.1E1,3.84E2,6.33E2,3.33E2,8E2,1.584E3,1.43E3,1.47E2,5.5E1,3E2,3.1E1,1.13E2,2.3E1,7.94E2,1.271E3,2.3E1,8.45E2,1.02E2,6.1E1,4E0,4.7E1,1.08E2,2.76E2,6.16E2,1.7E1,9E1,2.43E2,9E0,7.91E2,7.4E2,8.44E2,1.46E2,1.284E3,1.26E2,2.1E1,2E0,5.3E1,2.1E2,9E1,2E0,2.9E1,1.08E2,5E0,7E0,1.6E1,2.82E2,5.12E2,1.075E3,1.96E2,1.1E1,1.2E1,4.93E2,3.52E2,5E1,5.2E1,4.5E1,1.6E1,2E0,2E0,2.3E1,2.4E1,4E1,6.8E1,2.64E2,1.2E1,4.7E1,5.69E2,8E0,9E0,6.1E1,2.9E1,2.5E1,2.18E2,1E0,8E0,2.5E1,7.66E2,8E0,7.32E2,2E0,8.42E2,1.24E2,2.2E1,1.2E3,8.4E1,1.16E2,1E1,1.9E1,2E0,2.5E1,2.8E1,1.48E2,6.2E1,3E1,6E1,1E0,1E0,2.1E1,8E0,4.8E1,6E1,3E0,2E0,4E0,3E0,1.5E1,1E0],"tree_param":{"num_deleted":"0","num_feature":"7","num_nodes":"125","size_leaf_vector":"1"}},{"base_weights":[1.0140867E2,-5.423022E3,4.8401924E3,-6.915675E3,-6.9011084E2,-5.28261E1,6.0992803E3,-9.559936E3,-5.8521E3,-1.9691925E3,2.3398035E3,-2.358918E3,2.2120266E3,1.207386E4,3.6671626E3,-1.167502E4,-8.33948E3,-7.74621E3,-4.255542E3,-3.3275688E3,-1.3838241E3,5.3934517E3,-4.312155E3,-3.187683E3,1.7143286E3,5.5955474E3,-1.2298611E2,3.937513E3,1.5115131E4,1.5285502E3,5.092842E3,-1.2664065E3,-1.1084346E4,-7.6379443E3,-9.836012E3,-1.0105552E4,-7.0607866E3,-6.4308306E3,-2.8317915E3,-4.728744E3,-1.2761381E3,-1.4487803E3,9.7085986E2,2.0275165E3,8.366621E3,-6.4777583E3,4.577215E3,-3.5982162E2,-4.652649E3,6.658233E3,-2.9314534E3,2.584994E3,8.072302E3,-1.0865586E3,8.852447E3,1.6776168E3,6.057176E3,1.236329E4,2.4506088E4,-4.0361392E3,2.1390674E3,4.44047E3,6.618399E3,-8.047682E2,-1.1443441E3,-8.0665375E2,-5.477455E2,-1.1525543E3,-8.038393E2,-1.026139E3,-3.6750998E2,1.00100624E2,-7.364137E2,-7.7540936E2,-2.1546387E2,3.5708185E2,-3.808613E2,-3.3918015E2,-9.455729E2,-1.882648E2,3.0331236E1,-2.5838922E2,-1.0456399E2,1.2238313E1,4.2262842E2,1.0282118E3,1.2339587E2,-3.6508127E2,-1.046362E3,1.4411069E3,-5.714361E2,-3.1779025E2,1.8920633E2,-5.6170667E2,3.2499252E2,4.8684128E2,1.3432689E3,1.0306508E1,-6.578029E2,-1.4561333E1,4.890126E2,9.952758E2,3.6302753E1,-1.5884897E2,9.837331E2,1.0494396E3,2.192841E2,1.8303214E2,-1.0461328E3,6.138344E2,-3.3025537E2,1.4356365E3,6.055754E2,3.4355579E3,2.0226252E3,-1.2723788E3,2.5091878E2,1.906939E2,1.1412455E3,5.1969112E1,4.665987E2,6.4659973E2,2.9253733E3],"categories":[],"categories_nodes":[],"categories_segments":[],"categories_sizes":[],"default_left":[0,0,0,0,0,0,0,0,0,0,0,0,0,0,0,0,0,0,0,0,0,0,0,0,0,0,0,0,0,0,0,0,0,0,0,0,0,0,0,0,0,0,0,0,0,0,0,0,0,0,0,0,0,0,0,0,0,0,0,0,0,0,0,0,0,0,0,0,0,0,0,0,0,0,0,0,0,0,0,0,0,0,0,0,0,0,0,0,0,0,0,0,0,0,0,0,0,0,0,0,0,0,0,0,0,0,0,0,0,0,0,0,0,0,0,0,0,0,0,0,0,0,0],"id":7,"left_children":[1,3,5,7,9,11,13,15,17,19,21,23,25,27,29,31,33,35,37,39,41,43,45,47,49,51,53,55,57,59,61,-1,63,65,67,69,71,73,75,77,79,81,-1,83,85,87,89,91,93,95,97,99,101,103,105,107,109,111,113,115,117,119,121,-1,-1,-1,-1,-1,-1,-1,-1,-1,-1,-1,-1,-1,-1,-1,-1,-1,-1,-1,-1,-1,-1,-1,-1,-1,-1,-1,-1,-1,-1,-1,-1,-1,-1,-1,-1,-1,-1,-1,-1,-1,-1,-1,-1,-1,-1,-1,-1,-1,-1,-1,-1,-1,-1,-1,-1,-1,-1,-1,-1],"loss_changes":[2.3597831E11,2.9398065E10,2.9892231E10,8.842396E9,3.8762396E9,5.1968384E9,5.6030396E10,2.2413558E9,6.798377E9,5.543862E8,6.056142E9,1.669717E9,3.9667717E9,2.7555709E10,8.3586007E9,5.182669E7,5.3169766E8,1.5975424E9,3.7849907E9,6.004667E8,3.6928218E8,2.0245652E9,1.83923E9,1.6968417E9,1.9488556E9,1.5076956E9,2.5868662E9,1.4508544E9,2.0681064E10,3.7423089E9,1.6087613E9,0E0,1.412649E8,3.24352E8,4.570747E8,1.9277005E8,1.9711468E9,2.727676E9,4.666729E9,7.578916E8,8.391286E7,2.2198438E8,0E0,4.058105E8,1.4628731E9,8.181532E8,2.0052613E9,9.007978E8,2.0760274E9,4.3173146E8,4.8756432E8,5.923867E8,1.6200448E9,1.4960468E9,2.9409434E8,2.9534474E8,1.3954765E8,7.833043E9,7.01934E9,6.230047E9,2.1114813E9,1.0197115E9,1.5046287E9,0E0,0E0,0E0,0E0,0E0,0E0,0E0,0E0,0E0,0E0,0E0,0E0,0E0,0E0,0E0,0E0,0E0,0E0,0E0,0E0,0E0,0E0,0E0,0E0,0E0,0E0,0E0,0E0,0E0,0E0,0E0,0E0,0E0,0E0,0E0,0E0,0E0,0E0,0E0,0E0,0E0,0E0,0E0,0E0,0E0,0E0,0E0,0E0,0E0,0E0,0E0,0E0,0E0,0E0,0E0,0E0,0E0,0E0,0E0,0E0],"parents":[2147483647,0,0,1,1,2,2,3,3,4,4,5,5,6,6,7,7,8,8,9,9,10,10,11,11,12,12,13,13,14,14,15,15,16,16,17,17,18,18,19,19,20,20,21,21,22,22,23,23,24,24,25,25,26,26,27,27,28,28,29,29,30,30,32,32,33,33,34,34,35,35,36,36,37,37,38,38,39,39,40,40,41,41,43,43,44,44,45,45,46,46,47,47,48,48,49,49,50,50,51,51,52,52,53,53,54,54,55,55,56,56,57,57,58,58,59,59,60,60,61,61,62,62],"right_children":[2,4,6,8,10,12,14,16,18,20,22,24,26,28,30,32,34,36,38,40,42,44,46,48,50,52,54,56,58,60,62,-1,64,66,68,70,72,74,76,78,80,82,-1,84,86,88,90,92,94,96,98,100,102,104,106,108,110,112,114,116,118,120,122,-1,-1,-1,-1,-1,-1,-1,-1,-1,-1,-1,-1,-1,-1,-1,-1,-1,-1,-1,-1,-1,-1,-1,-1,-1,-1,-1,-1,-1,-1,-1,-1,-1,-1,-1,-1,-1,-1,-1,-1,-1,-1,-1,-1,-1,-1,-1,-1,-1,-1,-1,-1,-1,-1,-1,-1,-1,-1,-1,-1],"split_conditions":[9.725301E4,2.2119412E4,4.45E2,3.4414E2,2.4030299E4,1.3496922E5,6.69E2,1.9446785E4,5.90348E4,2.2536043E4,4.326971E4,2.5634992E4,1.7643186E4,6.27E2,1.2038208E5,1.8711521E4,6.652131E4,3.931994E4,6.33E2,1.90955E3,5.1544E3,2.7037438E4,3.6E3,1.7028475E4,4.1E2,7E2,3.559425E4,1.2490646E5,5.48767E3,2.0856326E4,1.3357864E5,-1.2664065E3,4.424464E4,2.089407E4,2.0799965E4,1.9051113E4,9.59949E3,5.28554E3,6.6E2,8.621028E4,3.85332E3,4.2E2,9.7085986E2,5.8281E2,9.11861E4,5.768506E4,2.131E3,3.92E3,5.38968E3,2.79832E3,1.1860056E5,2.128E3,1.6806516E5,1.02E4,4.13E2,1.2455794E5,1.6130648E5,3.769439E4,9.59949E3,4.71876E3,2.6072273E4,2.0420742E4,2.8066945E4,-8.047682E2,-1.1443441E3,-8.0665375E2,-5.477455E2,-1.1525543E3,-8.038393E2,-1.026139E3,-3.6750998E2,1.00100624E2,-7.364137E2,-7.7540936E2,-2.1546387E2,3.5708185E2,-3.808613E2,-3.3918015E2,-9.455729E2,-1.882648E2,3.0331236E1,-2.5838922E2,-1.0456399E2,1.2238313E1,4.2262842E2,1.0282118E3,1.2339587E2,-3.6508127E2,-1.046362E3,1.4411069E3,-5.714361E2,-3.1779025E2,1.8920633E2,-5.6170667E2,3.2499252E2,4.8684128E2,1.3432689E3,1.0306508E1,-6.578029E2,-1.4561333E1,4.890126E2,9.952758E2,3.6302753E1,-1.5884897E2,9.837331E2,1.0494396E3,2.192841E2,1.8303214E2,-1.0461328E3,6.138344E2,-3.3025537E2,1.4356365E3,6.055754E2,3.4355579E3,2.0226252E3,-1.2723788E3,2.5091878E2,1.906939E2,1.1412455E3,5.1969112E1,4.665987E2,6.4659973E2,2.9253733E3],"split_indices":[0,4,6,2,4,0,6,4,0,4,4,4,4,6,0,4,0,0,6,2,2,4,2,4,6,2,4,0,2,4,0,0,0,4,4,4,4,2,6,0,2,2,0,2,0,4,5,4,2,2,0,5,0,2,6,0,0,4,4,2,4,4,4,0,0,0,0,0,0,0,0,0,0,0,0,0,0,0,0,0,0,0,0,0,0,0,0,0,0,0,0,0,0,0,0,0,0,0,0,0,0,0,0,0,0,0,0,0,0,0,0,0,0,0,0,0,0,0,0,0,0,0,0],"split_type":[0,0,0,0,0,0,0,0,0,0,0,0,0,0,0,0,0,0,0,0,0,0,0,0,0,0,0,0,0,0,0,0,0,0,0,0,0,0,0,0,0,0,0,0,0,0,0,0,0,0,0,0,0,0,0,0,0,0,0,0,0,0,0,0,0,0,0,0,0,0,0,0,0,0,0,0,0,0,0,0,0,0,0,0,0,0,0,0,0,0,0,0,0,0,0,0,0,0,0,0,0,0,0,0,0,0,0,0,0,0,0,0,0,0,0,0,0,0,0,0,0,0,0],"sum_hessian":[9.012E3,4.161E3,4.851E3,3.163E3,9.98E2,9.93E2,3.858E3,9.05E2,2.258E3,7.02E2,2.96E2,4.92E2,5.01E2,1.115E3,2.743E3,3.28E2,5.77E2,1.031E3,1.227E3,2.1E2,4.92E2,2.03E2,9.3E1,4.09E2,8.3E1,2.04E2,2.97E2,3.04E2,8.11E2,1.098E3,1.645E3,1.15E2,2.13E2,3.97E2,1.8E2,2.29E2,8.02E2,4.84E2,7.43E2,1.24E2,8.6E1,4.9E2,2E0,9.6E1,1.07E2,7.5E1,1.8E1,1.4E2,2.69E2,4E1,4.3E1,9.3E1,1.11E2,2.69E2,2.8E1,1.48E2,1.56E2,6.29E2,1.82E2,1.08E2,9.9E2,1.155E3,4.9E2,2.5E1,1.88E2,3.29E2,6.8E1,9E1,9E1,2.23E2,6E0,2.9E1,7.73E2,3.69E2,1.15E2,9.8E1,6.45E2,9.8E1,2.6E1,6.2E1,2.4E1,1.27E2,3.63E2,5.2E1,4.4E1,8.4E1,2.3E1,4.5E1,3E1,9E0,9E0,6.2E1,7.8E1,2.4E2,2.9E1,3.3E1,7E0,2.4E1,1.9E1,4.3E1,5E1,8.9E1,2.2E1,2.58E2,1.1E1,2.2E1,6E0,1.47E2,1E0,1.55E2,1E0,4.77E2,1.52E2,5.3E1,1.29E2,4.6E1,6.2E1,9.67E2,2.3E1,6.3E1,1.092E3,4.88E2,2E0],"tree_param":{"num_deleted":"0","num_feature":"7","num_nodes":"123","size_leaf_vector":"1"}},{"base_weights":[2.1349648E1,4.551941E3,-4.866733E3,1.0629734E4,3.7235874E3,-2.137301E3,-6.570299E3,4.214179E3,1.7076064E4,5.4347344E3,1.1597881E3,5.327675E3,-2.8389485E3,-7.223142E3,-3.657632E3,1.2004126E4,3.1022825E3,1.1217044E4,2.3946018E4,4.9023374E3,1.61272295E4,-3.4611057E3,1.8972821E3,-2.5684377E3,1.0381661E4,-5.0726055E3,-1.3709452E3,-2.685658E3,-7.6840024E3,-4.149017E3,2.0442023E4,-6.4298506E3,1.4590118E4,-5.9052505E3,3.7877708E3,-1.0359297E4,1.3126798E4,3.3323242E4,1.1294526E4,7.057013E2,5.8744673E3,2.9508975E4,1.02900205E4,-6.0383555E3,7.0768243E2,9.695785E2,4.096915E3,-6.612026E2,-7.017156E3,1.5364847E4,6.8009746E3,-8.367113E3,-4.8280006E1,-1.6430325E3,9.359211E3,-5.1773203E3,6.9606836E2,-8.587309E3,-6.1285063E3,-3.9535806E3,-9.606215E3,3.2802938E4,6.7342563E3,8.377424E2,-1.2226025E3,5.794345E2,1.9840377E3,-7.471048E2,4.4140854E2,1.9931131E2,6.4971075E2,-1.68486E3,-2.3900935E2,5.8182935E2,1.5670995E3,1.3941744E3,4.0373965E3,2.0402239E3,5.667957E2,-2.7312997E2,2.4802539E2,1.3623215E3,5.141352E2,1.6825792E2,3.4090623E3,-1.0160161E3,1.1183905E3,-7.0839606E2,2.0051115E2,1.955212E2,-9.2185693E2,-6.078095E2,1.7985605E2,3.7473184E2,1.5758336E3,7.028354E2,-1.9244286E2,-8.062433E2,-3.7570755E2,6.2815106E2,1.7735746E3,1.00581464E3,-9.120188E0,-1.0359359E3,-5.8500836E2,2.1673738E2,-7.15099E1,-2.097386E2,2.836795E1,4.331517E2,2.0232294E3,-6.017629E2,7.024077E2,2.8417575E2,-9.0030383E2,-9.827301E2,-7.323618E2,-4.8843222E2,-7.465116E2,-4.1216074E2,7.700983E2,-1.0533424E3,-2.077168E2,3.8712205E3,4.5829434E2,-3.3026855E1,8.213215E2],"categories":[],"categories_nodes":[],"categories_segments":[],"categories_sizes":[],"default_left":[0,0,0,0,0,0,0,0,0,0,0,0,0,0,0,0,0,0,0,0,0,0,0,0,0,0,0,0,0,0,0,0,0,0,0,0,0,0,0,0,0,0,0,0,0,0,0,0,0,0,0,0,0,0,0,0,0,0,0,0,0,0,0,0,0,0,0,0,0,0,0,0,0,0,0,0,0,0,0,0,0,0,0,0,0,0,0,0,0,0,0,0,0,0,0,0,0,0,0,0,0,0,0,0,0,0,0,0,0,0,0,0,0,0,0,0,0,0,0,0,0,0,0,0,0,0,0],"id":8,"left_children":[1,3,5,7,9,11,13,15,17,19,21,23,25,27,29,31,33,35,37,39,41,43,45,47,49,51,53,55,57,59,61,63,65,67,69,71,73,75,77,79,81,83,85,87,89,91,93,95,97,99,101,103,105,107,109,111,113,115,117,119,121,123,125,-1,-1,-1,-1,-1,-1,-1,-1,-1,-1,-1,-1,-1,-1,-1,-1,-1,-1,-1,-1,-1,-1,-1,-1,-1,-1,-1,-1,-1,-1,-1,-1,-1,-1,-1,-1,-1,-1,-1,-1,-1,-1,-1,-1,-1,-1,-1,-1,-1,-1,-1,-1,-1,-1,-1,-1,-1,-1,-1,-1,-1,-1,-1,-1],"loss_changes":[2.0013254E11,2.357252E10,2.019849E10,2.3170548E10,1.8107773E10,8.772698E9,5.0620334E9,2.4139976E9,1.1001725E10,1.4015947E10,5.6432026E9,5.7732495E9,5.0066596E9,4.548518E9,5.911181E9,1.7622661E9,1.5598331E9,6.4404275E9,1.4809022E10,9.623892E9,8.835461E9,2.4539072E9,2.9079747E9,4.7899104E8,1.4657085E9,1.0030518E10,2.7130304E9,1.7141064E9,2.7336622E9,4.7715686E8,1.4735025E9,5.315503E8,1.3166213E9,3.2382157E8,1.1151117E9,6.320197E8,2.5306132E9,9.412829E9,2.75409E9,2.7208914E9,1.0814226E10,4.404814E9,1.6308777E9,1.2000548E9,1.1077539E9,5.8825375E9,1.6654341E9,4.117851E8,2.7639488E7,6.638761E8,1.1907146E9,1.774719E9,3.5761293E8,7.902136E8,1.1696937E9,1.2418611E9,1.8361649E9,1.8898616E9,1.1808461E9,9.482148E8,8.981645E7,6.563804E8,6.5401376E7,0E0,0E0,0E0,0E0,0E0,0E0,0E0,0E0,0E0,0E0,0E0,0E0,0E0,0E0,0E0,0E0,0E0,0E0,0E0,0E0,0E0,0E0,0E0,0E0,0E0,0E0,0E0,0E0,0E0,0E0,0E0,0E0,0E0,0E0,0E0,0E0,0E0,0E0,0E0,0E0,0E0,0E0,0E0,0E0,0E0,0E0,0E0,0E0,0E0,0E0,0E0,0E0,0E0,0E0,0E0,0E0,0E0,0E0,0E0,0E0,0E0,0E0,0E0,0E0],"parents":[2147483647,0,0,1,1,2,2,3,3,4,4,5,5,6,6,7,7,8,8,9,9,10,10,11,11,12,12,13,13,14,14,15,15,16,16,17,17,18,18,19,19,20,20,21,21,22,22,23,23,24,24,25,25,26,26,27,27,28,28,29,29,30,30,31,31,32,32,33,33,34,34,35,35,36,36,37,37,38,38,39,39,40,40,41,41,42,42,43,43,44,44,45,45,46,46,47,47,48,48,49,49,50,50,51,51,52,52,53,53,54,54,55,55,56,56,57,57,58,58,59,59,60,60,61,61,62,62],"right_children":[2,4,6,8,10,12,14,16,18,20,22,24,26,28,30,32,34,36,38,40,42,44,46,48,50,52,54,56,58,60,62,64,66,68,70,72,74,76,78,80,82,84,86,88,90,92,94,96,98,100,102,104,106,108,110,112,114,116,118,120,122,124,126,-1,-1,-1,-1,-1,-1,-1,-1,-1,-1,-1,-1,-1,-1,-1,-1,-1,-1,-1,-1,-1,-1,-1,-1,-1,-1,-1,-1,-1,-1,-1,-1,-1,-1,-1,-1,-1,-1,-1,-1,-1,-1,-1,-1,-1,-1,-1,-1,-1,-1,-1,-1,-1,-1,-1,-1,-1,-1,-1,-1,-1,-1,-1,-1],"split_conditions":[1.8988541E4,1.8332158E4,2.7671848E4,5.95E2,1.055119E4,1.383272E4,2.0594705E4,4E2,1.2232116E5,1.213105E4,4.14E2,4.24E2,2.1612E4,1.071001E4,8.246113E4,1.94E2,1.0799276E5,8.299743E4,9.59949E3,4.69E2,2.88992E3,2.383376E4,5.48767E3,1.198852E5,2.2568986E4,4.71876E3,2.7149066E4,6.6E2,1.57318E3,2.4869E4,9.852156E4,3.72368E3,1.4683344E5,6.72957E3,1.40772E3,8.56E3,2.78475E3,8.1476E2,1.1371779E4,2.4993639E4,1.05696E3,6.11E2,1.1753346E5,5.94404E3,1.2706725E5,2.3039754E4,1.3694873E5,2.0078264E4,1.46332E3,1.9934936E4,9.59949E3,2.0799965E4,2.186752E4,2.92499E3,8.1476E2,4.87091E4,4.6350277E4,1.9446785E4,3.67166E4,3.9321484E4,5.768506E4,3.884992E4,1.0948938E5,8.377424E2,-1.2226025E3,5.794345E2,1.9840377E3,-7.471048E2,4.4140854E2,1.9931131E2,6.4971075E2,-1.68486E3,-2.3900935E2,5.8182935E2,1.5670995E3,1.3941744E3,4.0373965E3,2.0402239E3,5.667957E2,-2.7312997E2,2.4802539E2,1.3623215E3,5.141352E2,1.6825792E2,3.4090623E3,-1.0160161E3,1.1183905E3,-7.0839606E2,2.0051115E2,1.955212E2,-9.2185693E2,-6.078095E2,1.7985605E2,3.7473184E2,1.5758336E3,7.028354E2,-1.9244286E2,-8.062433E2,-3.7570755E2,6.2815106E2,1.7735746E3,1.00581464E3,-9.120188E0,-1.0359359E3,-5.8500836E2,2.1673738E2,-7.15099E1,-2.097386E2,2.836795E1,4.331517E2,2.0232294E3,-6.017629E2,7.024077E2,2.8417575E2,-9.0030383E2,-9.827301E2,-7.323618E2,-4.8843222E2,-7.465116E2,-4.1216074E2,7.700983E2,-1.0533424E3,-2.077168E2,3.8712205E3,4.5829434E2,-3.3026855E1,8.213215E2],"split_indices":[3,4,3,6,3,4,4,6,0,2,6,6,4,4,0,6,0,0,4,6,3,4,2,0,3,2,4,6,2,4,0,2,0,4,2,4,4,2,3,4,3,6,0,2,0,4,0,3,2,3,4,4,3,2,2,2,3,4,3,3,4,3,0,0,0,0,0,0,0,0,0,0,0,0,0,0,0,0,0,0,0,0,0,0,0,0,0,0,0,0,0,0,0,0,0,0,0,0,0,0,0,0,0,0,0,0,0,0,0,0,0,0,0,0,0,0,0,0,0,0,0,0,0,0,0,0,0],"split_type":[0,0,0,0,0,0,0,0,0,0,0,0,0,0,0,0,0,0,0,0,0,0,0,0,0,0,0,0,0,0,0,0,0,0,0,0,0,0,0,0,0,0,0,0,0,0,0,0,0,0,0,0,0,0,0,0,0,0,0,0,0,0,0,0,0,0,0,0,0,0,0,0,0,0,0,0,0,0,0,0,0,0,0,0,0,0,0,0,0,0,0,0,0,0,0,0,0,0,0,0,0,0,0,0,0,0,0,0,0,0,0,0,0,0,0,0,0,0,0,0,0,0,0,0,0,0,0],"sum_hessian":[9.035E3,4.689E3,4.346E3,5.61E2,4.128E3,1.671E3,2.675E3,2.82E2,2.79E2,2.475E3,1.653E3,1.43E2,1.528E3,2.184E3,4.91E2,3.4E1,2.48E2,1.52E2,1.27E2,2.359E3,1.16E2,2.27E2,1.426E3,5.6E1,8.7E1,6.05E2,9.23E2,2.02E2,1.982E3,4.82E2,9E0,4E0,3E1,1.7E1,2.31E2,1.2E1,1.4E2,7.2E1,5.5E1,4.44E2,1.915E3,3.4E1,8.2E1,1.4E2,8.7E1,1.004E3,4.22E2,4E1,1.6E1,3.5E1,5.2E1,3.65E2,2.4E2,9.01E2,2.2E1,1.16E2,8.6E1,1.251E3,7.31E2,4.67E2,1.5E1,4E0,5E0,1E0,3E0,1.2E1,1.8E1,1.5E1,2E0,1.4E2,9.1E1,6E0,6E0,3.7E1,1.03E2,2E1,5.2E1,2E1,3.5E1,1.51E2,2.93E2,1.64E2,1.751E3,5E0,2.9E1,3E0,7.9E1,1.24E2,1.6E1,7.8E1,9E0,1.05E2,8.99E2,4.11E2,1.1E1,5E0,3.5E1,1.1E1,5E0,8E0,2.7E1,3.5E1,1.7E1,2.02E2,1.63E2,5.5E1,1.85E2,7.29E2,1.72E2,1.6E1,6E0,1.09E2,7E0,7.1E1,1.5E1,6.28E2,6.23E2,3.81E2,3.5E2,4.61E2,6E0,1.3E1,2E0,3E0,1E0,1E0,4E0],"tree_param":{"num_deleted":"0","num_feature":"7","num_nodes":"127","size_leaf_vector":"1"}},{"base_weights":[6.792442E1,4.6735317E3,-3.8578079E3,1.1507975E4,3.8223647E3,-7.330031E2,-5.608186E3,5.033529E3,1.8368045E4,-3.9990854E2,4.6149355E3,4.6473086E3,-1.428559E3,-6.223327E3,-2.6323767E3,-6.1390747E3,5.7093457E3,8.694522E3,2.76222E4,-3.3187136E3,1.1329368E3,1.061106E4,3.7534883E3,-1.1412599E3,9.298875E3,-2.5927168E3,4.5699686E2,-2.8007537E3,-6.652354E3,-2.9171294E3,1.1197393E4,-9.756509E2,-2.2064355E3,1.1745881E4,4.567303E3,-1.3374156E4,1.0556519E4,3.4070543E4,8.646097E3,3.9800676E3,-4.330865E3,3.8417007E3,-1.0241792E3,8.97102E3,2.5099342E4,3.988614E3,-2.7680679E3,7.8725977E2,-4.1942837E3,1.4685975E4,5.676356E3,-5.006787E3,1.0258217E1,2.5075597E2,1.3766046E4,-9.755884E3,-1.3048859E3,-7.3354526E3,-4.1526304E3,-2.7362207E3,-8.8856045E3,3.301972E3,5.713188E3,-3.405279E2,3.0927335E2,1.4845477E2,1.7035074E3,5.3289404E2,-6.7266235E1,-1.5580887E3,2.1398418E2,2.4834251E2,1.5514728E3,2.5050435E3,4.2088545E3,1.547758E3,3.2319083E2,8.14254E2,-5.8830035E2,-5.131362E2,2.5959735E2,7.5637184E1,7.222416E2,9.271636E1,-3.1360843E2,1.2235868E3,3.656628E2,1.2445072E3,3.3361223E3,3.706101E2,1.3144501E3,-4.0370105E2,2.7109626E3,2.9567728E2,-2.700023E2,-6.415748E2,-8.046152E1,-1.12535E3,1.5550928E3,6.471346E2,-3.6170956E2,-7.658552E2,-3.1123865E2,-4.3010147E2,4.754789E1,4.7612646E2,-9.027834E0,1.9523759E3,1.6879668E2,-1.012644E3,-2.870251E2,-4.834021E2,-4.138076E0,-8.4815735E2,-5.885329E2,-2.3197928E2,-6.2982153E2,-2.8448022E2,1.6598522E3,-9.805231E2,-1.93869E2,-3.9832834E2,1.043786E3],"categories":[],"categories_nodes":[],"categories_segments":[],"categories_sizes":[],"default_left":[0,0,0,0,0,0,0,0,0,0,0,0,0,0,0,0,0,0,0,0,0,0,0,0,0,0,0,0,0,0,0,0,0,0,0,0,0,0,0,0,0,0,0,0,0,0,0,0,0,0,0,0,0,0,0,0,0,0,0,0,0,0,0,0,0,0,0,0,0,0,0,0,0,0,0,0,0,0,0,0,0,0,0,0,0,0,0,0,0,0,0,0,0,0,0,0,0,0,0,0,0,0,0,0,0,0,0,0,0,0,0,0,0,0,0,0,0,0,0,0,0,0,0],"id":9,"left_children":[1,3,5,7,9,11,13,15,17,19,21,23,25,27,29,31,33,35,37,39,41,43,45,47,49,51,53,55,57,59,61,-1,63,65,67,69,71,73,75,77,79,81,83,85,87,89,91,93,95,97,99,101,103,105,107,109,111,113,115,117,119,-1,121,-1,-1,-1,-1,-1,-1,-1,-1,-1,-1,-1,-1,-1,-1,-1,-1,-1,-1,-1,-1,-1,-1,-1,-1,-1,-1,-1,-1,-1,-1,-1,-1,-1,-1,-1,-1,-1,-1,-1,-1,-1,-1,-1,-1,-1,-1,-1,-1,-1,-1,-1,-1,-1,-1,-1,-1,-1,-1,-1,-1],"loss_changes":[1.6266915E11,2.403944E10,2.6561692E10,2.0249686E10,1.2326826E10,6.536965E9,5.682094E9,1.8245499E9,1.963334E10,2.612147E9,1.597791E10,5.3957944E9,3.3947853E9,3.7683118E9,2.1395274E9,1.7763773E8,1.490604E9,4.6612803E9,1.3532602E10,1.5021189E9,2.2418486E9,9.018008E9,4.1711206E9,5.3320557E8,2.0827873E9,6.0073293E9,1.6187662E9,2.9940127E9,3.881558E9,5.425546E8,1.1278112E9,0E0,6.13546E7,1.8743071E9,7.618657E8,3.4145754E8,4.044335E9,5.0208113E9,1.05958605E9,1.0742715E9,9.947707E8,1.767742E9,8.848125E8,6.045344E9,3.6621865E9,6.7257344E9,3.7111841E9,4.3166288E8,2.5838874E8,1.1622042E9,5.2580506E8,2.4678226E9,9.266697E8,8.972227E8,5.929235E8,1.0106163E8,1.0655202E9,2.9383885E9,1.9280481E9,1.120011E9,7.68192E7,0E0,4.997033E8,0E0,0E0,0E0,0E0,0E0,0E0,0E0,0E0,0E0,0E0,0E0,0E0,0E0,0E0,0E0,0E0,0E0,0E0,0E0,0E0,0E0,0E0,0E0,0E0,0E0,0E0,0E0,0E0,0E0,0E0,0E0,0E0,0E0,0E0,0E0,0E0,0E0,0E0,0E0,0E0,0E0,0E0,0E0,0E0,0E0,0E0,0E0,0E0,0E0,0E0,0E0,0E0,0E0,0E0,0E0,0E0,0E0,0E0,0E0,0E0],"parents":[2147483647,0,0,1,1,2,2,3,3,4,4,5,5,6,6,7,7,8,8,9,9,10,10,11,11,12,12,13,13,14,14,15,15,16,16,17,17,18,18,19,19,20,20,21,21,22,22,23,23,24,24,25,25,26,26,27,27,28,28,29,29,30,30,32,32,33,33,34,34,35,35,36,36,37,37,38,38,39,39,40,40,41,41,42,42,43,43,44,44,45,45,46,46,47,47,48,48,49,49,50,50,51,51,52,52,53,53,54,54,55,55,56,56,57,57,58,58,59,59,60,60,62,62],"right_children":[2,4,6,8,10,12,14,16,18,20,22,24,26,28,30,32,34,36,38,40,42,44,46,48,50,52,54,56,58,60,62,-1,64,66,68,70,72,74,76,78,80,82,84,86,88,90,92,94,96,98,100,102,104,106,108,110,112,114,116,118,120,-1,122,-1,-1,-1,-1,-1,-1,-1,-1,-1,-1,-1,-1,-1,-1,-1,-1,-1,-1,-1,-1,-1,-1,-1,-1,-1,-1,-1,-1,-1,-1,-1,-1,-1,-1,-1,-1,-1,-1,-1,-1,-1,-1,-1,-1,-1,-1,-1,-1,-1,-1,-1,-1,-1,-1,-1,-1,-1,-1,-1,-1],"split_conditions":[1.613855E4,1.8332158E4,2.5016584E4,5.95E2,4.59E2,1.6454473E4,2.1109266E4,1.0799276E5,1.1963819E5,2.42752E4,3.3342095E3,6.33E2,2.2998861E4,1.3322704E4,8.444047E4,1.31184E3,4E2,8.299743E4,1.383272E4,3.5986084E3,4.1E2,1.099982E4,3.414113E4,1.3948362E5,8.56E3,3.05645E3,1E4,4.270378E4,3.8E3,2.5798389E4,8.513103E4,-9.756509E2,1.2130092E4,1.2017E3,1.6806516E5,3.477217E4,3.92E3,8.5696E2,6.61E2,4.14E2,5.94404E3,2.6406275E4,2.874649E4,4.039425E4,1.2925159E5,2.874649E4,1.3732655E5,5.888E3,4.14E2,4.762827E4,1.3809431E5,2.1994418E4,1.8854611E4,6.71202E4,1.664E4,4.87091E4,5.74E2,1.968059E4,3.5087375E4,4.3006938E4,5.768506E4,3.301972E3,3.0792104E4,-3.405279E2,3.0927335E2,1.4845477E2,1.7035074E3,5.3289404E2,-6.7266235E1,-1.5580887E3,2.1398418E2,2.4834251E2,1.5514728E3,2.5050435E3,4.2088545E3,1.547758E3,3.2319083E2,8.14254E2,-5.8830035E2,-5.131362E2,2.5959735E2,7.5637184E1,7.222416E2,9.271636E1,-3.1360843E2,1.2235868E3,3.656628E2,1.2445072E3,3.3361223E3,3.706101E2,1.3144501E3,-4.0370105E2,2.7109626E3,2.9567728E2,-2.700023E2,-6.415748E2,-8.046152E1,-1.12535E3,1.5550928E3,6.471346E2,-3.6170956E2,-7.658552E2,-3.1123865E2,-4.3010147E2,4.754789E1,4.7612646E2,-9.027834E0,1.9523759E3,1.6879668E2,-1.012644E3,-2.870251E2,-4.834021E2,-4.138076E0,-8.4815735E2,-5.885329E2,-2.3197928E2,-6.2982153E2,-2.8448022E2,1.6598522E3,-9.805231E2,-1.93869E2,-3.9832834E2,1.043786E3],"split_indices":[3,4,3,6,6,4,4,0,0,4,3,6,4,4,0,4,6,0,4,3,6,2,4,0,4,2,2,0,2,4,0,0,3,3,0,2,4,2,6,6,2,4,4,4,0,4,0,4,6,0,0,4,4,0,2,2,6,4,3,3,4,0,4,0,0,0,0,0,0,0,0,0,0,0,0,0,0,0,0,0,0,0,0,0,0,0,0,0,0,0,0,0,0,0,0,0,0,0,0,0,0,0,0,0,0,0,0,0,0,0,0,0,0,0,0,0,0,0,0,0,0,0,0],"split_type":[0,0,0,0,0,0,0,0,0,0,0,0,0,0,0,0,0,0,0,0,0,0,0,0,0,0,0,0,0,0,0,0,0,0,0,0,0,0,0,0,0,0,0,0,0,0,0,0,0,0,0,0,0,0,0,0,0,0,0,0,0,0,0,0,0,0,0,0,0,0,0,0,0,0,0,0,0,0,0,0,0,0,0,0,0,0,0,0,0,0,0,0,0,0,0,0,0,0,0,0,0,0,0,0,0,0,0,0,0,0,0,0,0,0,0,0,0,0,0,0,0,0,0],"sum_hessian":[8.995E3,4.139E3,4.856E3,4.57E2,3.682E3,1.744E3,3.112E3,2.36E2,2.21E2,5.82E2,3.1E3,1.99E2,1.545E3,2.578E3,5.34E2,1.3E1,2.23E2,1.09E2,1.12E2,2E2,3.82E2,3.88E2,2.712E3,8.9E1,1.1E2,9.55E2,5.9E2,2.88E2,2.29E3,5.24E2,1E1,6E0,7E0,3.4E1,1.89E2,8E0,1.01E2,8.3E1,2.9E1,2.4E1,1.76E2,1.69E2,2.13E2,3.5E2,3.8E1,2.618E3,9.4E1,5.5E1,3.4E1,4.3E1,6.7E1,4.95E2,4.6E2,5.82E2,8E0,5E1,2.38E2,1.797E3,4.93E2,5.1E2,1.4E1,1E0,9E0,6E0,1E0,1.2E1,2.2E1,1.65E2,2.4E1,7E0,1E0,3.9E1,6.2E1,4.1E1,4.2E1,1.2E1,1.7E1,1.7E1,7E0,1.58E2,1.8E1,8.9E1,8E1,1.11E2,1.02E2,2.16E2,1.34E2,1.6E1,2.2E1,2.541E3,7.7E1,9.1E1,3E0,3.4E1,2.1E1,2E1,1.4E1,1E0,4.2E1,6.2E1,5E0,2.05E2,2.9E2,4.4E1,4.16E2,4E1,5.42E2,5E0,3E0,4.7E1,3E0,6.2E1,1.76E2,1.001E3,7.96E2,2.67E2,2.26E2,5.08E2,2E0,1.2E1,2E0,3E0,6E0],"tree_param":{"num_deleted":"0","num_feature":"7","num_nodes":"123","size_leaf_vector":"1"}},{"base_weights":[-8.229331E-3,3.7337148E3,-3.9788616E3,7.4359194E3,2.7723826E3,-1.8282025E3,-5.4072603E3,2.684242E3,1.0780242E4,8.1467837E3,2.3708489E3,5.1651367E3,-2.2502761E3,-6.026591E3,-3.1972014E3,4.30353E3,-1.0624889E3,8.597063E3,2.0477457E4,3.406955E3,1.48855205E4,-1.3792234E3,2.9482485E3,-1.5779086E3,1.0588263E4,-3.2792534E3,-2.0135905E2,-6.130346E3,5.9461025E3,-3.4799072E3,9.248584E3,-5.447202E2,6.182223E3,-2.9999854E3,3.3648677E3,1.1239734E4,4.1785605E3,4.8956238E2,2.3651785E4,1.3510759E4,2.2758308E3,6.929115E3,2.0510975E4,-3.2144187E3,2.4359082E3,4.0659558E3,9.861502E2,1.7212943E2,-5.4652876E3,5.898815E2,1.2531644E4,-4.5477573E3,5.104492E2,-3.9012027E2,2.037613E4,-7.6342715E3,-5.453713E3,2.5298894E3,2.2183875E3,-4.637992E2,-3.7806086E3,3.136873E3,4.7911772E3,-2.2909251E2,7.601568E2,7.032464E2,1.5252632E2,-3.6231824E2,5.705439E2,6.451161E2,-1.08908936E2,8.6483575E2,2.6088486E3,-1.9740502E3,5.1561346E2,-1.056857E3,9.035937E2,6.845544E3,2.0703333E3,1.5541844E3,2.058047E1,4.2268137E2,4.971447E0,-3.8012228E2,1.0946245E3,2.9562654E3,8.7871185E2,-3.937032E2,2.3747586E2,5.2163135E2,-8.6334885E1,4.1966318E2,-7.75159E2,1.26149925E2,-6.575671E2,1.4904234E2,-1.4212987E2,-8.726945E2,3.380801E1,-1.0690824E3,3.0311627E2,1.2893715E3,-1.8807402E2,-7.0703815E2,-2.98022E2,1.1129302E1,4.0133466E2,-4.6032932E1,9.2031854E2,2.7575888E2,2.4091372E3,-8.7998944E2,-6.766335E2,-7.178502E2,-4.9870465E2,-5.2043695E2,5.5416736E2,-9.787474E2,1.0489729E1,-3.6733795E2,-1.00500653E3,-1.6266405E2,9.60771E2],"categories":[],"categories_nodes":[],"categories_segments":[],"categories_sizes":[],"default_left":[0,0,0,0,0,0,0,0,0,0,0,0,0,0,0,0,0,0,0,0,0,0,0,0,0,0,0,0,0,0,0,0,0,0,0,0,0,0,0,0,0,0,0,0,0,0,0,0,0,0,0,0,0,0,0,0,0,0,0,0,0,0,0,0,0,0,0,0,0,0,0,0,0,0,0,0,0,0,0,0,0,0,0,0,0,0,0,0,0,0,0,0,0,0,0,0,0,0,0,0,0,0,0,0,0,0,0,0,0,0,0,0,0,0,0,0,0,0,0,0,0,0,0],"id":10,"left_children":[1,3,5,7,9,11,13,15,17,19,21,23,25,27,29,31,33,35,37,39,41,43,45,47,49,51,53,55,57,59,61,63,65,67,69,71,73,75,77,79,81,83,85,87,89,91,93,95,97,99,101,103,105,107,109,111,113,115,-1,117,119,-1,121,-1,-1,-1,-1,-1,-1,-1,-1,-1,-1,-1,-1,-1,-1,-1,-1,-1,-1,-1,-1,-1,-1,-1,-1,-1,-1,-1,-1,-1,-1,-1,-1,-1,-1,-1,-1,-1,-1,-1,-1,-1,-1,-1,-1,-1,-1,-1,-1,-1,-1,-1,-1,-1,-1,-1,-1,-1,-1,-1,-1],"loss_changes":[1.33213176E11,1.6443548E10,1.3325672E10,1.511533E10,7.9091876E9,5.129877E9,3.5504456E9,2.4010511E9,1.1658404E10,8.0941046E9,7.409355E9,3.6369772E9,3.4485002E9,2.565636E9,2.0482826E9,2.5172792E9,1.0394531E9,5.300939E9,6.4601334E9,1.694979E9,4.5575086E9,3.207521E9,6.4961966E9,3.0707853E8,1.0612946E9,5.237421E9,2.1365083E9,2.0129137E9,9.423676E8,5.0704435E8,1.1314871E9,1.1269714E9,7.772216E8,4.7638803E8,5.156359E8,1.0779292E10,4.1469844E9,1.5131012E9,1.0207674E10,4.0215373E8,5.947964E8,1.9813414E9,6.213585E9,1.2573425E9,1.3713211E9,2.9481103E9,2.2507602E9,6.933775E7,2.6795072E8,3.0779936E8,2.6429082E8,3.2056412E9,3.8266096E8,3.7064067E8,2.6085146E8,5.7174835E8,1.0878444E9,4.0154355E8,0E0,2.767484E8,3.0593946E8,0E0,3.8656784E8,0E0,0E0,0E0,0E0,0E0,0E0,0E0,0E0,0E0,0E0,0E0,0E0,0E0,0E0,0E0,0E0,0E0,0E0,0E0,0E0,0E0,0E0,0E0,0E0,0E0,0E0,0E0,0E0,0E0,0E0,0E0,0E0,0E0,0E0,0E0,0E0,0E0,0E0,0E0,0E0,0E0,0E0,0E0,0E0,0E0,0E0,0E0,0E0,0E0,0E0,0E0,0E0,0E0,0E0,0E0,0E0,0E0,0E0,0E0,0E0],"parents":[2147483647,0,0,1,1,2,2,3,3,4,4,5,5,6,6,7,7,8,8,9,9,10,10,11,11,12,12,13,13,14,14,15,15,16,16,17,17,18,18,19,19,20,20,21,21,22,22,23,23,24,24,25,25,26,26,27,27,28,28,29,29,30,30,31,31,32,32,33,33,34,34,35,35,36,36,37,37,38,38,39,39,40,40,41,41,42,42,43,43,44,44,45,45,46,46,47,47,48,48,49,49,50,50,51,51,52,52,53,53,54,54,55,55,56,56,57,57,59,59,60,60,62,62],"right_children":[2,4,6,8,10,12,14,16,18,20,22,24,26,28,30,32,34,36,38,40,42,44,46,48,50,52,54,56,58,60,62,64,66,68,70,72,74,76,78,80,82,84,86,88,90,92,94,96,98,100,102,104,106,108,110,112,114,116,-1,118,120,-1,122,-1,-1,-1,-1,-1,-1,-1,-1,-1,-1,-1,-1,-1,-1,-1,-1,-1,-1,-1,-1,-1,-1,-1,-1,-1,-1,-1,-1,-1,-1,-1,-1,-1,-1,-1,-1,-1,-1,-1,-1,-1,-1,-1,-1,-1,-1,-1,-1,-1,-1,-1,-1,-1,-1,-1,-1,-1,-1,-1,-1],"split_conditions":[1.879529E4,4.0553289E3,2.7874512E4,6.27E2,1.672979E4,9.59949E3,2.0420742E4,2.8066945E4,6.37866E3,5.95E2,4.69E2,4.24E2,2.2536043E4,4.87091E4,8.246113E4,1.3989723E5,1.46332E3,6.6E2,1.1806082E5,3.94E2,8.1476E2,2.509195E4,1.1870458E4,1.3563778E5,9.40097E4,5.38968E3,6.5E3,3.4414E2,5.888E3,4.762827E4,8.513103E4,2.5754412E4,1.6806516E5,3.1779E3,1.4103178E5,1.2455794E5,5.28E3,6.56E2,2.599E1,1.5319992E4,1.3732291E4,7.602057E3,7.55708E3,5.94404E3,4.1E2,5.246012E4,3.0792104E4,2.351515E4,1.46332E3,4.762827E4,1.4432392E5,2.1155809E4,1.955E4,1.3563778E5,6.849822E4,1.9234096E4,4.201581E4,1.31184E3,2.2183875E3,1.384983E4,2.4433799E4,3.136873E3,1.0948938E5,-2.2909251E2,7.601568E2,7.032464E2,1.5252632E2,-3.6231824E2,5.705439E2,6.451161E2,-1.08908936E2,8.6483575E2,2.6088486E3,-1.9740502E3,5.1561346E2,-1.056857E3,9.035937E2,6.845544E3,2.0703333E3,1.5541844E3,2.058047E1,4.2268137E2,4.971447E0,-3.8012228E2,1.0946245E3,2.9562654E3,8.7871185E2,-3.937032E2,2.3747586E2,5.2163135E2,-8.6334885E1,4.1966318E2,-7.75159E2,1.26149925E2,-6.575671E2,1.4904234E2,-1.4212987E2,-8.726945E2,3.380801E1,-1.0690824E3,3.0311627E2,1.2893715E3,-1.8807402E2,-7.0703815E2,-2.98022E2,1.1129302E1,4.0133466E2,-4.6032932E1,9.2031854E2,2.7575888E2,2.4091372E3,-8.7998944E2,-6.766335E2,-7.178502E2,-4.9870465E2,-5.2043695E2,5.5416736E2,-9.787474E2,1.0489729E1,-3.6733795E2,-1.00500653E3,-1.6266405E2,9.60771E2],"split_indices":[3,3,3,6,4,4,4,4,2,6,6,6,4,2,0,0,2,6,0,6,2,4,3,0,0,2,2,2,4,0,0,4,0,3,0,0,4,6,3,3,3,3,4,2,6,4,4,3,2,0,0,4,2,0,0,4,0,4,0,0,4,0,0,0,0,0,0,0,0,0,0,0,0,0,0,0,0,0,0,0,0,0,0,0,0,0,0,0,0,0,0,0,0,0,0,0,0,0,0,0,0,0,0,0,0,0,0,0,0,0,0,0,0,0,0,0,0,0,0,0,0,0,0],"split_type":[0,0,0,0,0,0,0,0,0,0,0,0,0,0,0,0,0,0,0,0,0,0,0,0,0,0,0,0,0,0,0,0,0,0,0,0,0,0,0,0,0,0,0,0,0,0,0,0,0,0,0,0,0,0,0,0,0,0,0,0,0,0,0,0,0,0,0,0,0,0,0,0,0,0,0,0,0,0,0,0,0,0,0,0,0,0,0,0,0,0,0,0,0,0,0,0,0,0,0,0,0,0,0,0,0,0,0,0,0,0,0,0,0,0,0,0,0,0,0,0,0,0,0],"sum_hessian":[8.965E3,4.625E3,4.34E3,9.52E2,3.673E3,1.733E3,2.607E3,3.94E2,5.58E2,2.54E2,3.419E3,9.8E1,1.635E3,2.035E3,5.72E2,2.75E2,1.19E2,4.57E2,1.01E2,1.5E2,1.04E2,4.56E2,2.963E3,4.4E1,5.4E1,1.088E3,5.47E2,2.018E3,1.7E1,5.6E2,1.2E1,7.7E1,1.98E2,8.3E1,3.6E1,2.85E2,1.72E2,1.4E1,8.7E1,1.4E1,1.36E2,4.4E1,6E1,3.08E2,1.48E2,1.887E3,1.076E3,3.1E1,1.3E1,9E0,4.5E1,8.15E2,2.73E2,5.43E2,4E0,6.23E2,1.395E3,1.5E1,2E0,5.1E1,5.09E2,1E0,1.1E1,6.4E1,1.3E1,1.67E2,3.1E1,7.8E1,5E0,2.1E1,1.5E1,2.44E2,4.1E1,6E0,1.66E2,6E0,8E0,4E0,8.3E1,1.2E1,2E0,7.2E1,6.4E1,1.2E1,3.2E1,3.3E1,2.7E1,2.73E2,3.5E1,8E1,6.8E1,1.867E3,2E1,1.039E3,3.7E1,1.7E1,1.4E1,8E0,5E0,1E0,8E0,4.4E1,1E0,3.11E2,5.04E2,2.46E2,2.7E1,5.4E2,3E0,1E0,3E0,2.62E2,3.61E2,2.94E2,1.101E3,4E0,1.1E1,2E0,4.9E1,5.02E2,7E0,5E0,6E0],"tree_param":{"num_deleted":"0","num_feature":"7","num_nodes":"123","size_leaf_vector":"1"}},{"base_weights":[-3.7464363E1,-9.872364E2,1.7368266E4,-4.434266E3,2.2185613E3,2.2377223E4,7.833596E3,-5.7069756E3,-2.6885427E3,6.8409564E2,3.4649534E3,1.7109033E4,2.9543305E4,5.5723506E3,1.9360357E4,-6.343333E3,1.4038075E3,-4.0050251E3,-1.5495194E3,-9.232704E2,1.2924174E3,3.797346E3,-3.567945E3,2.0354965E4,-6.6852666E3,8.985657E3,2.785944E4,9.162847E3,-9.896083E2,1.5858409E4,3.4656465E4,-9.281062E3,-6.0937666E3,4.6060957E3,-7.7282637E3,-2.302396E3,-4.7928735E3,-1.3165148E3,-1.4849175E3,2.3803635E3,-1.5775834E3,6.752885E3,1.126495E3,4.149536E3,-2.5185432E3,6.075073E3,-6.3296606E3,9.410364E3,2.6221725E4,-1.3559927E4,7.040381E3,1.6429865E4,3.027562E4,1.728689E4,7.524187E3,-2.846366E3,1.2791549E4,2.3941228E3,6.454057E3,1.0270576E3,3.9361567E3,-6.2023632E1,-9.598005E2,-6.3776654E2,-2.6036274E1,1.1972255E2,1.0865637E3,-8.0393585E2,3.9132355E2,5.617936E1,-5.0607462E2,-9.715303E2,-3.7870358E2,3.9000693E2,-1.5902649E2,3.7898407E0,3.6721045E2,4.985748E0,-3.3477487E2,-6.43103E2,8.3099036E2,-1.00093066E3,1.1900958E2,3.828646E2,1.01396857E3,1.9550966E3,-2.8596948E2,1.0679376E3,-1.0285116E3,-8.5760175E2,-1.6923658E1,1.4865961E3,1.5168193E2,1.9863827E3,3.7149492E3,4.0494455E2,-1.5106986E3,1.5484675E3,1.6448369E2,-1.3277887E3,2.303531E3,3.1252883E3,-1.4805655E2,1.879318E3,5.499438E2,6.6815894E2,2.08099E3,6.2194305E1,-8.3914417E2,1.6335375E3,3.8025977E2,1.1276533E3,-2.478418E1],"categories":[],"categories_nodes":[],"categories_segments":[],"categories_sizes":[],"default_left":[0,0,0,0,0,0,0,0,0,0,0,0,0,0,0,0,0,0,0,0,0,0,0,0,0,0,0,0,0,0,0,0,0,0,0,0,0,0,0,0,0,0,0,0,0,0,0,0,0,0,0,0,0,0,0,0,0,0,0,0,0,0,0,0,0,0,0,0,0,0,0,0,0,0,0,0,0,0,0,0,0,0,0,0,0,0,0,0,0,0,0,0,0,0,0,0,0,0,0,0,0,0,0,0,0,0,0,0,0,0,0,0,0],"id":11,"left_children":[1,3,5,7,9,11,13,15,17,19,21,23,25,27,29,31,33,35,37,39,41,43,45,47,49,-1,51,53,55,57,59,61,63,65,67,69,71,-1,73,75,77,79,81,83,85,87,89,91,93,95,97,99,101,103,105,107,109,-1,111,-1,-1,-1,-1,-1,-1,-1,-1,-1,-1,-1,-1,-1,-1,-1,-1,-1,-1,-1,-1,-1,-1,-1,-1,-1,-1,-1,-1,-1,-1,-1,-1,-1,-1,-1,-1,-1,-1,-1,-1,-1,-1,-1,-1,-1,-1,-1,-1,-1,-1,-1,-1,-1,-1],"loss_changes":[1.4792429E11,9.377316E10,2.1936996E10,9.069593E9,8.4070953E9,1.0933469E10,4.0885555E9,1.0706002E10,2.5819392E9,1.9294061E9,5.6847667E9,1.3806625E10,1.0394698E10,3.213321E9,8.431237E8,1.5343944E9,5.738085E9,1.06209485E9,6.760653E8,1.1753482E9,1.2888983E9,5.164372E9,2.9678925E9,9.769902E9,2.171369E9,0E0,2.9545677E9,1.0414336E9,1.2902345E9,1.5937961E9,5.468672E7,4.5520384E8,3.315499E9,3.080996E9,2.161618E8,2.0174548E9,2.6665452E9,0E0,5.298153E8,2.7218813E8,1.305187E9,9.156001E8,9.9637376E8,4.1803653E9,9.8198214E8,1.9930202E9,1.1886615E9,2.389035E9,6.2793073E9,4.698158E8,3.3902272E8,5.01545E9,3.2117555E9,1.4522214E8,7.005453E8,8.514286E8,1.2901478E8,0E0,3.9063178E8,0E0,0E0,0E0,0E0,0E0,0E0,0E0,0E0,0E0,0E0,0E0,0E0,0E0,0E0,0E0,0E0,0E0,0E0,0E0,0E0,0E0,0E0,0E0,0E0,0E0,0E0,0E0,0E0,0E0,0E0,0E0,0E0,0E0,0E0,0E0,0E0,0E0,0E0,0E0,0E0,0E0,0E0,0E0,0E0,0E0,0E0,0E0,0E0,0E0,0E0,0E0,0E0,0E0,0E0],"parents":[2147483647,0,0,1,1,2,2,3,3,4,4,5,5,6,6,7,7,8,8,9,9,10,10,11,11,12,12,13,13,14,14,15,15,16,16,17,17,18,18,19,19,20,20,21,21,22,22,23,23,24,24,26,26,27,27,28,28,29,29,30,30,31,31,32,32,33,33,34,34,35,35,36,36,38,38,39,39,40,40,41,41,42,42,43,43,44,44,45,45,46,46,47,47,48,48,49,49,50,50,51,51,52,52,53,53,54,54,55,55,56,56,58,58],"right_children":[2,4,6,8,10,12,14,16,18,20,22,24,26,28,30,32,34,36,38,40,42,44,46,48,50,-1,52,54,56,58,60,62,64,66,68,70,72,-1,74,76,78,80,82,84,86,88,90,92,94,96,98,100,102,104,106,108,110,-1,112,-1,-1,-1,-1,-1,-1,-1,-1,-1,-1,-1,-1,-1,-1,-1,-1,-1,-1,-1,-1,-1,-1,-1,-1,-1,-1,-1,-1,-1,-1,-1,-1,-1,-1,-1,-1,-1,-1,-1,-1,-1,-1,-1,-1,-1,-1,-1,-1,-1,-1,-1,-1,-1,-1],"split_conditions":[3.949166E4,1.4830726E4,1.6317619E4,4.35862E3,2.2504713E4,5.53827E4,6.073477E4,2.527469E4,2.0799965E4,4.69E2,3.559425E4,6.6E2,2.599E1,2.6246057E4,7.10243E4,1.818905E4,3.559425E4,1.7808275E4,1.5453134E2,3.19E2,4.943738E3,2.1658041E4,4.24E2,6.37E2,5.878729E3,8.985657E3,8.1476E2,3.92E3,1.8473734E4,8.56E3,8.1476E2,1.824572E4,2.2998861E4,2.9439924E4,2.9374324E4,1.2E3,2.4612508E4,-1.3165148E3,5.3032285E3,1.702794E4,8.1274946E3,3.92E3,8.709537E3,3.394286E4,3.5639E2,1.099982E4,3.594366E4,3.414113E4,4.527334E4,4.067676E4,1.1750592E4,7.55708E3,3.477217E4,2.543226E4,2.7636674E4,1.14625E4,4.6350277E4,2.3941228E3,2.3866219E4,1.0270576E3,3.9361567E3,-6.2023632E1,-9.598005E2,-6.3776654E2,-2.6036274E1,1.1972255E2,1.0865637E3,-8.0393585E2,3.9132355E2,5.617936E1,-5.0607462E2,-9.715303E2,-3.7870358E2,3.9000693E2,-1.5902649E2,3.7898407E0,3.6721045E2,4.985748E0,-3.3477487E2,-6.43103E2,8.3099036E2,-1.00093066E3,1.1900958E2,3.828646E2,1.01396857E3,1.9550966E3,-2.8596948E2,1.0679376E3,-1.0285116E3,-8.5760175E2,-1.6923658E1,1.4865961E3,1.5168193E2,1.9863827E3,3.7149492E3,4.0494455E2,-1.5106986E3,1.5484675E3,1.6448369E2,-1.3277887E3,2.303531E3,3.1252883E3,-1.4805655E2,1.879318E3,5.499438E2,6.6815894E2,2.08099E3,6.2194305E1,-8.3914417E2,1.6335375E3,3.8025977E2,1.1276533E3,-2.478418E1],"split_indices":[1,1,3,1,1,1,1,4,4,6,4,6,3,3,1,3,4,4,3,6,3,3,6,6,3,0,2,4,4,4,2,4,4,4,3,2,3,0,1,1,3,4,3,1,2,2,1,4,1,1,3,4,2,3,4,4,3,0,3,0,0,0,0,0,0,0,0,0,0,0,0,0,0,0,0,0,0,0,0,0,0,0,0,0,0,0,0,0,0,0,0,0,0,0,0,0,0,0,0,0,0,0,0,0,0,0,0,0,0,0,0,0,0],"split_type":[0,0,0,0,0,0,0,0,0,0,0,0,0,0,0,0,0,0,0,0,0,0,0,0,0,0,0,0,0,0,0,0,0,0,0,0,0,0,0,0,0,0,0,0,0,0,0,0,0,0,0,0,0,0,0,0,0,0,0,0,0,0,0,0,0,0,0,0,0,0,0,0,0,0,0,0,0,0,0,0,0,0,0,0,0,0,0,0,0,0,0,0,0,0,0,0,0,0,0,0,0,0,0,0,0,0,0,0,0,0,0,0,0],"sum_hessian":[8.946E3,8.484E3,4.62E2,4.088E3,4.396E3,3.02E2,1.6E2,2.363E3,1.725E3,1.971E3,2.425E3,1.76E2,1.26E2,1.35E2,2.5E1,2.169E3,1.94E2,7.99E2,9.26E2,5.41E2,1.43E3,2.316E3,1.09E2,1.55E2,2.1E1,2E0,1.24E2,8.7E1,4.8E1,2.2E1,3E0,1.67E2,2.002E3,1.44E2,5E1,2.54E2,5.45E2,4E0,9.22E2,8.9E1,4.52E2,4.1E1,1.389E3,2.194E3,1.22E2,2.4E1,8.5E1,5.5E1,1E2,1.4E1,7E0,2.3E1,1.01E2,1.3E1,7.4E1,4.3E1,5E0,1.1E1,1.1E1,1E0,2E0,6E0,1.61E2,1.909E3,9.3E1,9.4E1,5E1,4.9E1,1E0,1.25E2,1.29E2,9.1E1,4.54E2,1.7E1,9.05E2,3.2E1,5.7E1,2.36E2,2.16E2,4E0,3.7E1,7E0,1.382E3,2.084E3,1.1E2,1E0,1.21E2,1.9E1,5E0,6.2E1,2.3E1,3.2E1,2.3E1,6.5E1,3.5E1,1E0,1.3E1,2E0,5E0,4E0,1.9E1,9.8E1,3E0,1.1E1,2E0,7.1E1,3E0,2.7E1,1.6E1,3E0,2E0,6E0,5E0],"tree_param":{"num_deleted":"0","num_feature":"7","num_nodes":"113","size_leaf_vector":"1"}},{"base_weights":[-2.1748142E1,-3.1657063E3,4.2775605E3,-4.7699443E3,-7.330201E2,2.8486716E3,1.6475064E4,-5.168643E3,3.396313E2,-3.0766575E1,-5.113403E3,2.6046487E3,7.3705635E3,2.0873486E4,5.295911E3,-6.05811E3,-3.8575947E3,3.4147942E3,-6.9462637E3,-7.5146814E2,9.648035E2,-3.6066614E3,-1.1985513E4,3.038959E3,1.3490399E2,1.0475618E3,1.0207185E4,1.8297984E4,3.771138E4,8.337555E3,-3.4986099E3,-5.5996577E3,-8.487715E3,4.484093E3,-4.020085E3,9.399462E2,9.974277E3,-5.6491025E3,-1.5968835E4,-6.5449225E2,-6.5258164E3,7.539582E3,6.8038275E2,-1.3867374E2,-4.634863E3,-7.518445E3,-1.5115066E3,3.22881E3,-2.1354702E3,-2.1158677E3,2.5383455E3,2.645996E3,-7.416214E3,1.4155002E4,3.0665225E3,2.4264717E4,9.105235E3,4.5939562E4,2.0912258E4,1.3208764E4,1.3403882E3,1.2228389E3,-1.0682687E4,-6.0799506E2,-1.2019689E2,-7.270166E2,-1.0366553E3,-4.540084E2,1.0609642E3,-3.5083206E2,-6.590013E2,4.695227E2,-1.6120738E2,1.1987653E3,-4.7750412E2,-8.954385E2,-2.3738655E2,-1.8296957E3,-5.989646E2,-5.364146E1,-4.977259E2,-7.905836E2,2.549554E2,-6.9890375E2,1.0602357E3,1.112944E3,6.0646423E1,-5.941658E2,4.217898E2,-2.91116E2,-6.525146E2,-8.4044385E2,-3.6073904E2,2.526437E2,5.0635953E2,1.1454996E3,-3.6384946E2,3.3252132E1,-5.2069214E2,2.6848345E3,2.1082666E2,-5.1786285E2,4.6354767E2,-9.5884973E2,4.9810275E2,1.9211807E3,7.1945795E2,1.1121172E3,9.6767876E1,1.6136935E3,3.1866262E3,-9.5559735E2,1.3042543E3,-1.8475293E2,4.8097593E3,2.809154E3,1.3802487E3,1.7430286E3,7.0436346E2,1.0331077E3,-3.5854172E2,4.7269556E2,-5.4594977E2,-1.2442603E3,4.3381973E2],"categories":[],"categories_nodes":[],"categories_segments":[],"categories_sizes":[],"default_left":[0,0,0,0,0,0,0,0,0,0,0,0,0,0,0,0,0,0,0,0,0,0,0,0,0,0,0,0,0,0,0,0,0,0,0,0,0,0,0,0,0,0,0,0,0,0,0,0,0,0,0,0,0,0,0,0,0,0,0,0,0,0,0,0,0,0,0,0,0,0,0,0,0,0,0,0,0,0,0,0,0,0,0,0,0,0,0,0,0,0,0,0,0,0,0,0,0,0,0,0,0,0,0,0,0,0,0,0,0,0,0,0,0,0,0,0,0,0,0,0,0,0,0,0,0],"id":12,"left_children":[1,3,5,7,9,11,13,15,17,19,21,23,25,27,29,31,33,35,37,39,41,43,45,47,49,51,53,55,57,59,61,63,65,67,69,71,73,75,77,79,81,83,85,87,89,91,-1,93,95,97,99,101,103,105,107,109,111,113,115,117,119,121,123,-1,-1,-1,-1,-1,-1,-1,-1,-1,-1,-1,-1,-1,-1,-1,-1,-1,-1,-1,-1,-1,-1,-1,-1,-1,-1,-1,-1,-1,-1,-1,-1,-1,-1,-1,-1,-1,-1,-1,-1,-1,-1,-1,-1,-1,-1,-1,-1,-1,-1,-1,-1,-1,-1,-1,-1,-1,-1,-1,-1,-1,-1],"loss_changes":[1.2182735E11,2.0313481E10,6.6304803E10,6.3923896E9,6.36745E9,3.7424476E9,1.9508543E10,3.3700823E9,5.1321313E9,1.2814784E9,2.9181573E9,3.470635E9,3.1101655E9,1.1712635E10,3.078647E9,1.8816737E9,1.6160932E9,2.6042542E9,7.05644E8,5.758604E8,1.3973728E9,8.408837E8,5.993349E8,2.7103846E9,2.6290258E9,7.6370675E8,3.339395E9,1.3491741E10,4.1536717E9,2.8794916E9,1.03064083E9,3.076477E9,5.491446E8,1.3195634E9,1.4985646E9,1.1384282E9,1.3638615E9,6.39104E8,7.626982E7,5.1796074E8,2.3306758E8,1.4535348E9,5.4936314E8,1.4155227E9,5.740124E8,4.9380736E7,0E0,3.4087137E9,2.0435057E9,1.9013252E9,2.4003732E9,7.5565146E8,2.9013344E8,2.571986E9,7.3307814E8,8.815108E9,7.4721254E9,2.563879E9,3.2687E8,1.178538E9,1.6313507E9,4.707049E8,3.7120448E8,0E0,0E0,0E0,0E0,0E0,0E0,0E0,0E0,0E0,0E0,0E0,0E0,0E0,0E0,0E0,0E0,0E0,0E0,0E0,0E0,0E0,0E0,0E0,0E0,0E0,0E0,0E0,0E0,0E0,0E0,0E0,0E0,0E0,0E0,0E0,0E0,0E0,0E0,0E0,0E0,0E0,0E0,0E0,0E0,0E0,0E0,0E0,0E0,0E0,0E0,0E0,0E0,0E0,0E0,0E0,0E0,0E0,0E0,0E0,0E0,0E0,0E0],"parents":[2147483647,0,0,1,1,2,2,3,3,4,4,5,5,6,6,7,7,8,8,9,9,10,10,11,11,12,12,13,13,14,14,15,15,16,16,17,17,18,18,19,19,20,20,21,21,22,22,23,23,24,24,25,25,26,26,27,27,28,28,29,29,30,30,31,31,32,32,33,33,34,34,35,35,36,36,37,37,38,38,39,39,40,40,41,41,42,42,43,43,44,44,45,45,47,47,48,48,49,49,50,50,51,51,52,52,53,53,54,54,55,55,56,56,57,57,58,58,59,59,60,60,61,61,62,62],"right_children":[2,4,6,8,10,12,14,16,18,20,22,24,26,28,30,32,34,36,38,40,42,44,46,48,50,52,54,56,58,60,62,64,66,68,70,72,74,76,78,80,82,84,86,88,90,92,-1,94,96,98,100,102,104,106,108,110,112,114,116,118,120,122,124,-1,-1,-1,-1,-1,-1,-1,-1,-1,-1,-1,-1,-1,-1,-1,-1,-1,-1,-1,-1,-1,-1,-1,-1,-1,-1,-1,-1,-1,-1,-1,-1,-1,-1,-1,-1,-1,-1,-1,-1,-1,-1,-1,-1,-1,-1,-1,-1,-1,-1,-1,-1,-1,-1,-1,-1,-1,-1,-1,-1,-1,-1],"split_conditions":[1.984864E4,9.290691E3,4.221637E4,2.5135303E4,1.1450088E5,3.594366E4,1.7323334E4,2.429264E3,3.559425E4,1.5460364E4,4.24E2,1.4230481E4,1.1766187E5,7.10243E4,1.3694873E5,8.299743E4,1.7323334E4,3.0029387E4,9.284587E4,4.4754137E4,9.960791E3,1.071001E4,1.1963819E5,3.2492482E4,6.61E2,4.8542496E4,1.3563555E4,1.3126308E5,6.853658E3,2.6424803E4,2.2347158E4,2.195245E4,4.84E2,4.14E2,7.369488E4,7.369488E4,1.88736E3,8.0835E2,4.536707E4,4.039425E4,6.652131E4,1.4398407E4,5.714491E4,1.944E3,9.960791E3,1.1575892E5,-1.5115066E3,2.638401E4,9.95928E4,5.95E2,6.023454E4,5.888E3,8.238626E3,3.414113E4,2.78475E3,6.37E2,5.163626E4,8.469951E4,1.4432392E5,1.759233E4,1.0130362E5,1.5603148E5,6.601277E4,-6.0799506E2,-1.2019689E2,-7.270166E2,-1.0366553E3,-4.540084E2,1.0609642E3,-3.5083206E2,-6.590013E2,4.695227E2,-1.6120738E2,1.1987653E3,-4.7750412E2,-8.954385E2,-2.3738655E2,-1.8296957E3,-5.989646E2,-5.364146E1,-4.977259E2,-7.905836E2,2.549554E2,-6.9890375E2,1.0602357E3,1.112944E3,6.0646423E1,-5.941658E2,4.217898E2,-2.91116E2,-6.525146E2,-8.4044385E2,-3.6073904E2,2.526437E2,5.0635953E2,1.1454996E3,-3.6384946E2,3.3252132E1,-5.2069214E2,2.6848345E3,2.1082666E2,-5.1786285E2,4.6354767E2,-9.5884973E2,4.9810275E2,1.9211807E3,7.1945795E2,1.1121172E3,9.6767876E1,1.6136935E3,3.1866262E3,-9.5559735E2,1.3042543E3,-1.8475293E2,4.8097593E3,2.809154E3,1.3802487E3,1.7430286E3,7.0436346E2,1.0331077E3,-3.5854172E2,4.7269556E2,-5.4594977E2,-1.2442603E3,4.3381973E2],"split_indices":[1,1,1,4,0,1,3,1,4,1,6,3,0,1,0,0,3,4,0,3,3,4,0,4,6,4,3,0,3,3,3,4,6,6,0,0,1,1,4,4,0,4,0,4,3,0,0,1,0,6,0,4,3,4,4,6,1,0,0,4,0,0,1,0,0,0,0,0,0,0,0,0,0,0,0,0,0,0,0,0,0,0,0,0,0,0,0,0,0,0,0,0,0,0,0,0,0,0,0,0,0,0,0,0,0,0,0,0,0,0,0,0,0,0,0,0,0,0,0,0,0,0,0,0,0],"split_type":[0,0,0,0,0,0,0,0,0,0,0,0,0,0,0,0,0,0,0,0,0,0,0,0,0,0,0,0,0,0,0,0,0,0,0,0,0,0,0,0,0,0,0,0,0,0,0,0,0,0,0,0,0,0,0,0,0,0,0,0,0,0,0,0,0,0,0,0,0,0,0,0,0,0,0,0,0,0,0,0,0,0,0,0,0,0,0,0,0,0,0,0,0,0,0,0,0,0,0,0,0,0,0,0,0,0,0,0,0,0,0,0,0,0,0,0,0,0,0,0,0,0,0,0,0],"sum_hessian":[9.011E3,5.205E3,3.806E3,3.136E3,2.069E3,3.408E3,3.98E2,2.909E3,2.27E2,1.784E3,2.85E2,3.235E3,1.73E2,2.85E2,1.13E2,1.731E3,1.178E3,1.6E2,6.7E1,1.035E3,7.49E2,2.35E2,5E1,2.751E3,4.84E2,5.4E1,1.19E2,2.49E2,3.6E1,8.4E1,2.9E1,1.459E3,2.72E2,2.2E1,1.156E3,1.17E2,4.3E1,6E1,7E0,1.019E3,1.6E1,3E1,7.19E2,5.4E1,1.81E2,2.2E1,2.8E1,2.654E3,9.7E1,2.5E2,2.34E2,4.6E1,8E0,7.6E1,4.3E1,1.5E2,9.9E1,2.3E1,1.3E1,4.9E1,3.5E1,1.8E1,1.1E1,1.315E3,1.44E2,1.68E2,1.04E2,9E0,1.3E1,9.66E2,1.9E2,4.7E1,7E1,3.8E1,5E0,2.9E1,3.1E1,5E0,2E0,9.93E2,2.6E1,1.4E1,2E0,5E0,2.5E1,4E0,7.15E2,2.3E1,3.1E1,9.6E1,8.5E1,1.7E1,5E0,1.921E3,7.33E2,9E0,8.8E1,1.4E2,1.1E2,3E0,2.31E2,9E0,3.7E1,7E0,1E0,4.3E1,3.3E1,8E0,3.5E1,7.4E1,7.6E1,1.7E1,8.2E1,1E0,2.2E1,5E0,8E0,2.8E1,2.1E1,1.2E1,2.3E1,1.2E1,6E0,1E1,1E0],"tree_param":{"num_deleted":"0","num_feature":"7","num_nodes":"125","size_leaf_vector":"1"}},{"base_weights":[3.1328424E1,-6.795656E2,1.723209E4,-3.848711E3,1.8351018E3,1.4911277E4,3.475563E4,-5.5860977E3,-3.0465952E3,3.448258E2,3.1142375E3,2.1921072E4,6.337559E3,4.8144346E3,3.699271E4,-5.3147783E3,-7.7909043E3,5.425632E1,-3.3157532E3,9.371871E2,-2.4034038E3,3.438157E3,-1.5799235E3,2.767442E4,1.4485227E4,-3.295956E3,1.2505433E4,-1.7551524E2,7.5893475E2,4.5517867E4,2.7044178E4,-5.9283853E3,-4.159731E3,-6.693136E3,-1.0272523E4,1.250645E3,-1.2038422E4,-4.033948E3,-2.032277E3,1.929604E2,1.5616655E3,-1.7653942E3,-1.3681987E4,3.0781248E3,8.48185E3,1.760497E3,-4.4257793E3,2.2201629E4,4.3395758E4,1.5957962E4,-3.9594604E2,-9.5963125E3,1.5769187E3,2.0768403E3,1.5950162E4,1.0138622E4,5.1517812E4,3.5025184E4,1.5560651E4,-9.1972705E2,-5.8336945E2,1.5353337E2,-4.710523E2,-5.823673E2,-8.324886E2,-7.2010986E2,-1.1257137E3,3.5457272E2,-6.448529E1,-5.887804E2,-1.3814514E3,-3.5020715E2,-6.339513E2,-1.3688173E2,-6.310087E2,6.4302606E2,6.3572993E0,7.817995E2,1.3726208E2,-3.3017526E2,7.502483E1,-1.4036015E2,-1.4225726E3,7.33457E2,2.6350168E2,1.9915761E2,9.6602704E2,7.4941173E0,1.0182511E3,-6.690316E2,-1.5009703E2,9.7370795E2,3.4403015E3,4.9153804E3,1.1684443E3,2.485492E3,1.1456166E3,-3.0761584E2,9.1827704E2,-1.5315469E3,-4.0087274E2,-5.4397438E1,1.7089387E3,8.981839E2,-8.8856125E1,8.5439453E2,2.4036409E3,1.5642026E3,-3.185795E2,7.15288E3,3.888675E3,9.9363184E2,3.6540437E3,2.3186992E2,1.6774346E3],"categories":[],"categories_nodes":[],"categories_segments":[],"categories_sizes":[],"default_left":[0,0,0,0,0,0,0,0,0,0,0,0,0,0,0,0,0,0,0,0,0,0,0,0,0,0,0,0,0,0,0,0,0,0,0,0,0,0,0,0,0,0,0,0,0,0,0,0,0,0,0,0,0,0,0,0,0,0,0,0,0,0,0,0,0,0,0,0,0,0,0,0,0,0,0,0,0,0,0,0,0,0,0,0,0,0,0,0,0,0,0,0,0,0,0,0,0,0,0,0,0,0,0,0,0,0,0,0,0,0,0,0,0,0,0],"id":13,"left_children":[1,3,5,7,9,11,13,15,17,19,21,23,25,27,29,31,33,35,37,39,41,43,45,47,49,51,53,-1,-1,55,57,59,61,63,65,67,69,71,73,75,77,79,81,83,85,87,89,91,93,95,97,99,101,103,105,107,109,111,113,-1,-1,-1,-1,-1,-1,-1,-1,-1,-1,-1,-1,-1,-1,-1,-1,-1,-1,-1,-1,-1,-1,-1,-1,-1,-1,-1,-1,-1,-1,-1,-1,-1,-1,-1,-1,-1,-1,-1,-1,-1,-1,-1,-1,-1,-1,-1,-1,-1,-1,-1,-1,-1,-1,-1,-1],"loss_changes":[1.0998961E11,6.884628E10,1.4000521E10,5.309268E9,9.181404E9,1.8912772E10,2.5681224E9,6.800302E8,2.1843763E9,3.6260577E9,3.9466455E9,7.043023E9,8.597453E9,8.624059E7,1.991893E9,7.386583E8,2.8539597E8,3.0532398E9,2.211461E9,8.511273E8,2.8182052E9,4.37743E9,1.6048591E9,7.382393E9,1.7157673E9,1.7650811E9,3.1281582E9,0E0,0E0,3.510874E9,1.2879872E9,1.6333005E8,1.1898045E9,8.346214E7,3.3854464E7,8.3754854E8,1.2622029E8,1.8699428E9,2.4492047E9,6.750738E8,1.1672635E9,1.4518254E9,1.2023373E8,4.2526106E9,1.2121334E9,1.1065074E9,5.9268186E8,1.0919289E10,3.8079447E9,2.5589699E9,2.336316E8,7.375114E8,1.0950056E9,4.7893107E8,3.7472748E9,3.4315082E8,1.262637E9,5.509837E7,1.2182246E8,0E0,0E0,0E0,0E0,0E0,0E0,0E0,0E0,0E0,0E0,0E0,0E0,0E0,0E0,0E0,0E0,0E0,0E0,0E0,0E0,0E0,0E0,0E0,0E0,0E0,0E0,0E0,0E0,0E0,0E0,0E0,0E0,0E0,0E0,0E0,0E0,0E0,0E0,0E0,0E0,0E0,0E0,0E0,0E0,0E0,0E0,0E0,0E0,0E0,0E0,0E0,0E0,0E0,0E0,0E0,0E0],"parents":[2147483647,0,0,1,1,2,2,3,3,4,4,5,5,6,6,7,7,8,8,9,9,10,10,11,11,12,12,13,13,14,14,15,15,16,16,17,17,18,18,19,19,20,20,21,21,22,22,23,23,24,24,25,25,26,26,29,29,30,30,31,31,32,32,33,33,34,34,35,35,36,36,37,37,38,38,39,39,40,40,41,41,42,42,43,43,44,44,45,45,46,46,47,47,48,48,49,49,50,50,51,51,52,52,53,53,54,54,55,55,56,56,57,57,58,58],"right_children":[2,4,6,8,10,12,14,16,18,20,22,24,26,28,30,32,34,36,38,40,42,44,46,48,50,52,54,-1,-1,56,58,60,62,64,66,68,70,72,74,76,78,80,82,84,86,88,90,92,94,96,98,100,102,104,106,108,110,112,114,-1,-1,-1,-1,-1,-1,-1,-1,-1,-1,-1,-1,-1,-1,-1,-1,-1,-1,-1,-1,-1,-1,-1,-1,-1,-1,-1,-1,-1,-1,-1,-1,-1,-1,-1,-1,-1,-1,-1,-1,-1,-1,-1,-1,-1,-1,-1,-1,-1,-1,-1,-1,-1,-1,-1,-1],"split_conditions":[4.37305E4,1.321761E4,7.10243E4,7.4956E2,2.2408332E4,1.3212912E5,2.76E2,9.774356E4,1.5319992E4,1.2305965E5,2.2010258E4,7.814274E3,5.810982E4,8.469951E4,3.3342095E3,5.0355E2,4.96E2,1.1669061E5,7.3797104E3,1.7561146E4,4.24E2,3.594366E4,1.1557398E5,5.53827E4,4.6350277E4,6.61E2,6.43E2,-1.7551524E2,7.5893475E2,8.5696E2,1.4683344E5,1.769336E4,1.769336E4,1.2895748E5,9.994916E4,9.000184E4,4.12E2,6.982736E4,9.5139E4,6.22902E4,2.46911E3,2.0575502E4,6.476E1,4.14E2,6.37E2,3.703589E4,3.394286E4,6.37E2,1.405179E4,1.1806082E5,9.31953E3,1.403457E5,1.490019E5,8.5696E2,1.3948362E5,1.4503902E5,1.405179E4,8.1476E2,1.490019E5,-9.1972705E2,-5.8336945E2,1.5353337E2,-4.710523E2,-5.823673E2,-8.324886E2,-7.2010986E2,-1.1257137E3,3.5457272E2,-6.448529E1,-5.887804E2,-1.3814514E3,-3.5020715E2,-6.339513E2,-1.3688173E2,-6.310087E2,6.4302606E2,6.3572993E0,7.817995E2,1.3726208E2,-3.3017526E2,7.502483E1,-1.4036015E2,-1.4225726E3,7.33457E2,2.6350168E2,1.9915761E2,9.6602704E2,7.4941173E0,1.0182511E3,-6.690316E2,-1.5009703E2,9.7370795E2,3.4403015E3,4.9153804E3,1.1684443E3,2.485492E3,1.1456166E3,-3.0761584E2,9.1827704E2,-1.5315469E3,-4.0087274E2,-5.4397438E1,1.7089387E3,8.981839E2,-8.8856125E1,8.5439453E2,2.4036409E3,1.5642026E3,-3.185795E2,7.15288E3,3.888675E3,9.9363184E2,3.6540437E3,2.3186992E2,1.6774346E3],"split_indices":[1,1,1,1,1,0,6,0,3,0,3,3,1,0,3,1,6,0,1,1,6,1,0,1,3,6,6,0,0,2,0,3,3,0,0,0,6,0,0,0,3,1,2,6,6,1,1,6,2,0,2,0,0,2,0,0,2,2,0,0,0,0,0,0,0,0,0,0,0,0,0,0,0,0,0,0,0,0,0,0,0,0,0,0,0,0,0,0,0,0,0,0,0,0,0,0,0,0,0,0,0,0,0,0,0,0,0,0,0,0,0,0,0,0,0],"split_type":[0,0,0,0,0,0,0,0,0,0,0,0,0,0,0,0,0,0,0,0,0,0,0,0,0,0,0,0,0,0,0,0,0,0,0,0,0,0,0,0,0,0,0,0,0,0,0,0,0,0,0,0,0,0,0,0,0,0,0,0,0,0,0,0,0,0,0,0,0,0,0,0,0,0,0,0,0,0,0,0,0,0,0,0,0,0,0,0,0,0,0,0,0,0,0,0,0,0,0,0,0,0,0,0,0,0,0,0,0,0,0,0,0,0,0],"sum_hessian":[8.993E3,8.637E3,3.56E2,3.821E3,4.816E3,3.16E2,4E1,1.205E3,2.616E3,2.225E3,2.591E3,1.73E2,1.43E2,3E0,3.7E1,1.076E3,1.29E2,2.09E2,2.407E3,1.831E3,3.94E2,2.424E3,1.67E2,9.6E1,7.7E1,5.6E1,8.7E1,1E0,2E0,1.8E1,1.9E1,7E2,3.76E2,9.2E1,3.7E1,1.91E2,1.8E1,1.542E3,8.65E2,8.36E2,9.95E2,3.74E2,2E1,2.264E3,1.6E2,7.7E1,9E1,7.3E1,2.3E1,7E1,7E0,2.4E1,3.2E1,2.2E1,6.5E1,3E0,1.5E1,1E1,9E0,1.7E1,6.83E2,3.3E1,3.43E2,6.3E1,2.9E1,1.1E1,2.6E1,8.6E1,1.05E2,5E0,1.3E1,1.255E3,2.87E2,7.5E2,1.15E2,1.6E1,8.2E2,2.8E1,9.67E2,2.32E2,1.42E2,1E0,1.9E1,2.12E2,2.052E3,2.5E1,1.35E2,6.5E1,1.2E1,5E1,4E1,3.7E1,3.6E1,1.9E1,4E0,2.2E1,4.8E1,6E0,1E0,1.1E1,1.3E1,2.9E1,3E0,6E0,1.6E1,3.5E1,3E1,2E0,1E0,4E0,1.1E1,1E0,9E0,1E0,8E0],"tree_param":{"num_deleted":"0","num_feature":"7","num_nodes":"115","size_leaf_vector":"1"}},{"base_weights":[-3.0183666E0,2.2883157E3,-2.8175518E3,6.32026E3,1.7817537E3,-3.4909224E3,-9.3111487E2,2.3781934E3,1.1016409E4,3.0678103E3,5.400404E2,-7.957397E1,-3.8551748E3,-1.0547828E3,5.278959E3,-1.0817506E4,2.635898E3,7.570807E3,1.58801E4,3.4111726E3,-1.3305636E3,-1.0457103E0,2.4496301E3,3.840792E3,-2.2384944E3,-4.346416E3,-1.9600175E3,-1.6664027E3,-2.6458533E2,-8.9112524E2,1.3604752E4,-1.1814056E3,-2.917377E2,3.8319321E3,-2.158218E2,-1.446656E4,8.914227E3,2.5284834E4,5.610772E3,7.6149604E3,2.7785386E3,-4.373786E3,6.910003E3,-3.412572E3,7.591837E2,2.288328E3,1.3413873E4,-2.0637134E3,6.531044E3,-4.145232E3,4.206562E2,-5.732427E3,-3.6861904E3,-5.0944128E2,-4.0049456E3,-2.5739927E3,-9.449004E1,-8.0140156E3,-1.7865639E2,5.4828125E3,-7.1377593E3,4.911201E3,1.9577352E3,1.623095E1,4.9182257E2,6.6313965E2,-1.9246289E2,-1.9440565E3,1.2662743E3,-1.4259764E3,9.8640784E2,4.0181165E3,1.6050222E3,1.8379785E3,2.8077048E2,9.946074E2,3.0235287E2,1.3771703E3,2.572639E2,1.2339459E3,-4.9266992E2,2.0213265E3,5.406927E2,4.082558E2,-4.0615918E2,1.0353457E2,-5.482751E2,2.4050291E2,-7.545854E2,2.574374E3,-2.269462E2,5.589685E0,-6.944406E2,7.300341E2,-5.083746E2,-4.8149405E2,4.9117014E2,4.6009976E2,-3.7702014E2,-6.1750763E1,-6.0134674E2,-3.3239792E2,-5.925815E2,-1.6450626E1,-9.550278E2,-2.974748E2,-5.3727167E2,-5.224172E2,-2.2409647E2,-2.0629337E1,1.2027513E3,-9.9297504E2,-1.7553808E1,-5.9229572E1,1.7625113E2,-2.8983188E2,7.3627216E2,-8.5609564E2,7.00709E1,7.985299E2,2.0003645E1],"categories":[],"categories_nodes":[],"categories_segments":[],"categories_sizes":[],"default_left":[0,0,0,0,0,0,0,0,0,0,0,0,0,0,0,0,0,0,0,0,0,0,0,0,0,0,0,0,0,0,0,0,0,0,0,0,0,0,0,0,0,0,0,0,0,0,0,0,0,0,0,0,0,0,0,0,0,0,0,0,0,0,0,0,0,0,0,0,0,0,0,0,0,0,0,0,0,0,0,0,0,0,0,0,0,0,0,0,0,0,0,0,0,0,0,0,0,0,0,0,0,0,0,0,0,0,0,0,0,0,0,0,0,0,0,0,0,0,0,0,0],"id":14,"left_children":[1,3,5,7,9,11,13,15,17,19,21,23,25,27,29,31,33,35,37,39,41,43,45,47,49,51,53,55,57,59,61,-1,-1,63,65,67,69,71,73,75,77,79,81,83,85,87,89,91,93,95,97,99,101,103,105,107,109,111,113,115,117,119,-1,-1,-1,-1,-1,-1,-1,-1,-1,-1,-1,-1,-1,-1,-1,-1,-1,-1,-1,-1,-1,-1,-1,-1,-1,-1,-1,-1,-1,-1,-1,-1,-1,-1,-1,-1,-1,-1,-1,-1,-1,-1,-1,-1,-1,-1,-1,-1,-1,-1,-1,-1,-1,-1,-1,-1,-1,-1,-1],"loss_changes":[5.821545E10,1.015187E10,5.142616E9,1.0248255E10,7.0598953E9,3.7088297E9,8.250108E8,1.05889395E9,4.119636E9,3.2847729E9,2.3258537E9,2.4546237E9,2.5023324E9,5.055748E8,1.0909112E9,1.27712E7,1.01723136E9,4.569771E9,9.902479E9,5.337651E9,3.9925274E9,4.5542584E9,8.48277E8,1.649593E9,9.4989024E8,1.9380552E9,1.6502024E9,8.414815E8,3.035506E8,5.5673856E8,3.7115968E8,0E0,0E0,8.3632205E8,1.0541142E9,1.4606427E9,3.266343E9,6.7834266E9,1.7738077E9,2.784857E9,3.9324723E9,1.132746E9,7.505289E8,1.573217E9,2.4810314E9,5.8164915E8,1.4120385E9,3.417787E8,6.715141E8,6.847891E8,1.4013647E9,9.867223E8,1.159E9,1.0181788E9,3.0951347E8,3.1837926E8,2.9657702E8,7.333917E7,3.655802E8,1.3162982E8,8.408848E7,7.081555E7,0E0,0E0,0E0,0E0,0E0,0E0,0E0,0E0,0E0,0E0,0E0,0E0,0E0,0E0,0E0,0E0,0E0,0E0,0E0,0E0,0E0,0E0,0E0,0E0,0E0,0E0,0E0,0E0,0E0,0E0,0E0,0E0,0E0,0E0,0E0,0E0,0E0,0E0,0E0,0E0,0E0,0E0,0E0,0E0,0E0,0E0,0E0,0E0,0E0,0E0,0E0,0E0,0E0,0E0,0E0,0E0,0E0,0E0,0E0],"parents":[2147483647,0,0,1,1,2,2,3,3,4,4,5,5,6,6,7,7,8,8,9,9,10,10,11,11,12,12,13,13,14,14,15,15,16,16,17,17,18,18,19,19,20,20,21,21,22,22,23,23,24,24,25,25,26,26,27,27,28,28,29,29,30,30,33,33,34,34,35,35,36,36,37,37,38,38,39,39,40,40,41,41,42,42,43,43,44,44,45,45,46,46,47,47,48,48,49,49,50,50,